{"learner":{"attributes":{"scikit_learn":"{\"_estimator_type\": \"classifier\"}"},"feature_names":["ano_nasc","mes_nasc","CODMUNRES_150013","CODMUNRES_150020","CODMUNRES_150030","CODMUNRES_150034","CODMUNRES_150040","CODMUNRES_150050","CODMUNRES_150060","CODMUNRES_150070","CODMUNRES_150080","CODMUNRES_150085","CODMUNRES_150090","CODMUNRES_150095","CODMUNRES_150100","CODMUNRES_150110","CODMUNRES_150120","CODMUNRES_150125","CODMUNRES_150130","CODMUNRES_150140","CODMUNRES_150145","CODMUNRES_150150","CODMUNRES_150157","CODMUNRES_150160","CODMUNRES_150170","CODMUNRES_150172","CODMUNRES_150175","CODMUNRES_150178","CODMUNRES_150180","CODMUNRES_150190","CODMUNRES_150195","CODMUNRES_150200","CODMUNRES_150210","CODMUNRES_150215","CODMUNRES_150220","CODMUNRES_150230","CODMUNRES_150240","CODMUNRES_150250","CODMUNRES_150260","CODMUNRES_150270","CODMUNRES_150275","CODMUNRES_150276","CODMUNRES_150277","CODMUNRES_150280","CODMUNRES_150285","CODMUNRES_150290","CODMUNRES_150293","CODMUNRES_150295","CODMUNRES_150300","CODMUNRES_150304","CODMUNRES_150307","CODMUNRES_150309","CODMUNRES_150310","CODMUNRES_150320","CODMUNRES_150330","CODMUNRES_150340","CODMUNRES_150345","CODMUNRES_150350","CODMUNRES_150360","CODMUNRES_150370","CODMUNRES_150375","CODMUNRES_150380","CODMUNRES_150390","CODMUNRES_150400","CODMUNRES_150405","CODMUNRES_150410","CODMUNRES_150420","CODMUNRES_150430","CODMUNRES_150440","CODMUNRES_150442","CODMUNRES_150445","CODMUNRES_150450","CODMUNRES_150460","CODMUNRES_150470","CODMUNRES_150475","CODMUNRES_150480","CODMUNRES_150490","CODMUNRES_150495","CODMUNRES_150497","CODMUNRES_150500","CODMUNRES_150503","CODMUNRES_150506","CODMUNRES_150510","CODMUNRES_150520","CODMUNRES_150530","CODMUNRES_150540","CODMUNRES_150543","CODMUNRES_150548","CODMUNRES_150549","CODMUNRES_150550","CODMUNRES_150553","CODMUNRES_150555","CODMUNRES_150560","CODMUNRES_150563","CODMUNRES_150565","CODMUNRES_150570","CODMUNRES_150580","CODMUNRES_150590","CODMUNRES_150600","CODMUNRES_150610","CODMUNRES_150611","CODMUNRES_150613","CODMUNRES_150616","CODMUNRES_150618","CODMUNRES_150619","CODMUNRES_150620","CODMUNRES_150630","CODMUNRES_150635","CODMUNRES_150640","CODMUNRES_150650","CODMUNRES_150655","CODMUNRES_150658","CODMUNRES_150660","CODMUNRES_150670","CODMUNRES_150680","CODMUNRES_150690","CODMUNRES_150700","CODMUNRES_150710","CODMUNRES_150715","CODMUNRES_150720","CODMUNRES_150730","CODMUNRES_150740","CODMUNRES_150745","CODMUNRES_150746","CODMUNRES_150747","CODMUNRES_150750","CODMUNRES_150760","CODMUNRES_150770","CODMUNRES_150775","CODMUNRES_150780","CODMUNRES_150790","CODMUNRES_150795","CODMUNRES_150796","CODMUNRES_150797","CODMUNRES_150800","CODMUNRES_150803","CODMUNRES_150805","CODMUNRES_150808","CODMUNRES_150810","CODMUNRES_150812","CODMUNRES_150815","CODMUNRES_150820","CODMUNRES_150830","CODMUNRES_150835","CODMUNRES_150840","CODMUNRES_ignorado","sexo_cat_ignorado","sexo_cat_masculino","peso_cat_insuficiente","peso_cat_adequado","peso_cat_alto","peso_cat_ignorado","idade_mae_cat_20-34","idade_mae_cat_35-49","idade_mae_cat_50+","idade_mae_cat_ignorado","esc_mae_cat_baixa","esc_mae_cat_ignorado","esc_mae_cat_media","filhos_vivos_cat_1-3","filhos_vivos_cat_4-6","filhos_vivos_cat_7+","filhos_vivos_cat_ignorado","filhos_mortos_cat_1-3","filhos_mortos_cat_4-6","filhos_mortos_cat_7+","filhos_mortos_cat_ignorado","gestacao_cat_a-termo","gestacao_cat_pos-termo","gestacao_cat_ignorado","gravidez_cat_ignorado","gravidez_cat_multipla","gravidez_cat_unica","parto_cat_ignorado","parto_cat_normal"],"feature_types":["int","int","i","i","i","i","i","i","i","i","i","i","i","i","i","i","i","i","i","i","i","i","i","i","i","i","i","i","i","i","i","i","i","i","i","i","i","i","i","i","i","i","i","i","i","i","i","i","i","i","i","i","i","i","i","i","i","i","i","i","i","i","i","i","i","i","i","i","i","i","i","i","i","i","i","i","i","i","i","i","i","i","i","i","i","i","i","i","i","i","i","i","i","i","i","i","i","i","i","i","i","i","i","i","i","i","i","i","i","i","i","i","i","i","i","i","i","i","i","i","i","i","i","i","i","i","i","i","i","i","i","i","i","i","i","i","i","i","i","i","i","i","i","i","i","i","i","i","i","i","i","i","i","i","i","i","i","i","i","i","i","i","i","i","i","i","i","i","i","i","i","i","i","i","i"],"gradient_booster":{"model":{"cats":{"enc":[],"feature_segments":[],"sorted_idx":[]},"gbtree_model_param":{"num_parallel_tree":"1","num_trees":"200"},"iteration_indptr":[0,1,2,3,4,5,6,7,8,9,10,11,12,13,14,15,16,17,18,19,20,21,22,23,24,25,26,27,28,29,30,31,32,33,34,35,36,37,38,39,40,41,42,43,44,45,46,47,48,49,50,51,52,53,54,55,56,57,58,59,60,61,62,63,64,65,66,67,68,69,70,71,72,73,74,75,76,77,78,79,80,81,82,83,84,85,86,87,88,89,90,91,92,93,94,95,96,97,98,99,100,101,102,103,104,105,106,107,108,109,110,111,112,113,114,115,116,117,118,119,120,121,122,123,124,125,126,127,128,129,130,131,132,133,134,135,136,137,138,139,140,141,142,143,144,145,146,147,148,149,150,151,152,153,154,155,156,157,158,159,160,161,162,163,164,165,166,167,168,169,170,171,172,173,174,175,176,177,178,179,180,181,182,183,184,185,186,187,188,189,190,191,192,193,194,195,196,197,198,199,200],"tree_info":[0,0,0,0,0,0,0,0,0,0,0,0,0,0,0,0,0,0,0,0,0,0,0,0,0,0,0,0,0,0,0,0,0,0,0,0,0,0,0,0,0,0,0,0,0,0,0,0,0,0,0,0,0,0,0,0,0,0,0,0,0,0,0,0,0,0,0,0,0,0,0,0,0,0,0,0,0,0,0,0,0,0,0,0,0,0,0,0,0,0,0,0,0,0,0,0,0,0,0,0,0,0,0,0,0,0,0,0,0,0,0,0,0,0,0,0,0,0,0,0,0,0,0,0,0,0,0,0,0,0,0,0,0,0,0,0,0,0,0,0,0,0,0,0,0,0,0,0,0,0,0,0,0,0,0,0,0,0,0,0,0,0,0,0,0,0,0,0,0,0,0,0,0,0,0,0,0,0,0,0,0,0,0,0,0,0,0,0,0,0,0,0,0,0,0,0,0,0,0,0],"trees":[{"base_weights":[-1.3663156E-4,8.559261E-1,-4.825286E-1,1.2691463E0,-5.349908E-1,-6.885499E-1,3.2770592E-1,1.31711E0,-8.5065985E-1,-6.5138716E-1,2.416766E-1,-3.691364E-1,-8.677486E-1,4.6760276E-1,-3.6634974E-2,1.3644315E0,-9.013298E-2,-9.682345E-1,1.6979684E-1,-6.929402E-1,-1.365205E-1,2.0442231E-1,1.1028248E0,-2.5934112E-1,-1.0184613E0,-9.227178E-1,-1.5759686E-1,5.5089295E-1,-1.158571E-1,8.384854E-3,-8.334922E-1,7.0891224E-2,3.7773177E-2,-1.0989764E-2,3.3339124E-2,-5.4851737E-2,-6.817507E-3,1.8859232E-2,-9.591837E-2,-3.360355E-2,-7.783737E-2,-3.7870627E-2,1.2877558E-2,1.5581212E-2,-2.7759501E-3,6.1798044E-2,-8.857143E-2,-2.0919465E-2,-4.0192227E-3,-5.4607958E-2,-2.1721851E-2,-5.492807E-2,-3.913925E-2,9.13905E-3,-1.4691487E-2,2.923317E-2,-2.390453E-2,-8.877735E-3,4.706497E-2,-1.03690075E-2,9.4029745E-3,-5.2097876E-2,1.4492874E-2],"categories":[],"categories_nodes":[],"categories_segments":[],"categories_sizes":[],"default_left":[0,0,0,0,0,0,0,0,0,0,0,0,0,0,0,0,0,0,0,0,0,0,0,0,0,0,0,0,0,0,0,0,0,0,0,0,0,0,0,0,0,0,0,0,0,0,0,0,0,0,0,0,0,0,0,0,0,0,0,0,0,0,0],"id":0,"left_children":[1,3,5,7,9,11,13,15,17,19,21,23,25,27,29,31,33,35,37,39,41,43,45,47,49,51,53,55,57,59,61,-1,-1,-1,-1,-1,-1,-1,-1,-1,-1,-1,-1,-1,-1,-1,-1,-1,-1,-1,-1,-1,-1,-1,-1,-1,-1,-1,-1,-1,-1,-1,-1],"loss_changes":[1.745381E5,8.755221E4,4.5124395E4,1.1941609E4,3.1542627E3,1.23359375E4,2.7933125E3,7.64775E3,3.1199756E2,6.490713E2,1.4568375E2,5.5220703E3,5.389414E3,1.9243896E3,5.454939E2,3.6114531E3,3.669166E2,2.4957544E2,1.1737646E2,5.050918E2,5.5493365E2,1.21533844E2,7.427196E1,1.8858447E3,4.8171875E2,3.1523281E3,4.6006433E2,1.2043994E3,3.2285663E2,5.5803284E2,1.9072058E2,0E0,0E0,0E0,0E0,0E0,0E0,0E0,0E0,0E0,0E0,0E0,0E0,0E0,0E0,0E0,0E0,0E0,0E0,0E0,0E0,0E0,0E0,0E0,0E0,0E0,0E0,0E0,0E0,0E0,0E0,0E0,0E0],"parents":[2147483647,0,0,1,1,2,2,3,3,4,4,5,5,6,6,7,7,8,8,9,9,10,10,11,11,12,12,13,13,14,14,15,15,16,16,17,17,18,18,19,19,20,20,21,21,22,22,23,23,24,24,25,25,26,26,27,27,28,28,29,29,30,30],"right_children":[2,4,6,8,10,12,14,16,18,20,22,24,26,28,30,32,34,36,38,40,42,44,46,48,50,52,54,56,58,60,62,-1,-1,-1,-1,-1,-1,-1,-1,-1,-1,-1,-1,-1,-1,-1,-1,-1,-1,-1,-1,-1,-1,-1,-1,-1,-1,-1,-1,-1,-1,-1,-1],"split_conditions":[1E0,1E0,1E0,1E0,1E0,1E0,1E0,1E0,1E0,1E0,1E0,1E0,1E0,1E0,1E0,1E0,1E0,1.2E1,1E0,1E0,7E0,1E0,1E0,1E0,1E0,1E0,4E0,1E0,1E0,1E0,1E0,7.0891224E-2,3.7773177E-2,-1.0989764E-2,3.3339124E-2,-5.4851737E-2,-6.817507E-3,1.8859232E-2,-9.591837E-2,-3.360355E-2,-7.783737E-2,-3.7870627E-2,1.2877558E-2,1.5581212E-2,-2.7759501E-3,6.1798044E-2,-8.857143E-2,-2.0919465E-2,-4.0192227E-3,-5.4607958E-2,-2.1721851E-2,-5.492807E-2,-3.913925E-2,9.13905E-3,-1.4691487E-2,2.923317E-2,-2.390453E-2,-8.877735E-3,4.706497E-2,-1.03690075E-2,9.4029745E-3,-5.2097876E-2,1.4492874E-2],"split_indices":[167,149,19,150,19,149,174,168,19,114,160,150,114,153,153,169,19,1,174,24,1,174,169,147,160,147,1,150,160,147,160,0,0,0,0,0,0,0,0,0,0,0,0,0,0,0,0,0,0,0,0,0,0,0,0,0,0,0,0,0,0,0,0],"split_type":[0,0,0,0,0,0,0,0,0,0,0,0,0,0,0,0,0,0,0,0,0,0,0,0,0,0,0,0,0,0,0,0,0,0,0,0,0,0,0,0,0,0,0,0,0,0,0,0,0,0,0,0,0,0,0,0,0,0,0,0,0,0,0],"sum_hessian":[4.2265162E5,1.5232744E5,2.703242E5,1.17438375E5,3.4889066E4,2.1552262E5,5.4801562E4,1.1484033E5,2.5980474E3,3.0341984E4,4.5470825E3,7.7458875E4,1.3806375E5,3.9597086E4,1.5204474E4,1.1110424E5,3.7360828E3,2.3296785E3,2.6836902E2,2.8075748E4,2.2662378E3,4.3597134E3,1.87369E2,6.625681E4,1.1202059E4,1.2814445E5,9.919296E3,3.4650684E4,4.9464043E3,1.4392343E4,8.1213086E2,1.0214689E5,8.957355E3,3.1902854E3,5.457975E2,2.0170593E3,3.1261902E2,2.44869E2,2.35E1,2.7415188E4,6.605595E2,8.7953564E2,1.3867021E3,3.0865828E3,1.2731307E3,1.79619E2,7.75E0,3.507896E4,3.1177854E4,9.946095E3,1.2559641E3,5.678277E4,7.136169E4,2.835202E3,7.084094E3,3.3550027E4,1.1006547E3,4.6744277E3,2.7197614E2,6.5393325E3,7.8530107E3,6.8507135E2,1.270595E2],"tree_param":{"num_deleted":"0","num_feature":"175","num_nodes":"63","size_leaf_vector":"1"}},{"base_weights":[2.4230783E-3,5.7342213E-1,-5.8360434E-1,1.1704615E0,-4.7925568E-1,-7.9133415E-1,2.7932397E-1,1.0823514E0,1.4822116E0,-5.649936E-1,-7.846243E-2,-8.4307593E-1,-1.3503507E-1,-3.274219E-1,4.396654E-1,1.4891893E0,1.0235347E0,1.4836684E0,-9.40658E-2,-6.881958E-1,-4.2798597E-1,-5.3361434E-1,8.646756E-2,-9.940965E-1,-7.2174364E-1,-6.13104E-1,1.6211526E-2,-5.5190456E-1,-1.4356789E-1,5.6688166E-1,2.3813362E-1,7.4687764E-2,-9.570337E-2,5.2244354E-2,-1.7537657E-3,8.1260644E-2,7.321199E-2,-3.461689E-2,8.558112E-2,-2.3930527E-2,5.4876036E-3,-2.4139803E-2,-6.670976E-2,2.0593291E-2,-2.5427777E-3,-5.1748276E-2,-2.4615204E-2,-3.7913576E-2,-5.8628507E-3,-7.555621E-2,-2.238212E-2,-6.375833E-3,6.6092783E-3,-1.4154558E-2,-4.4346657E-2,1.3242903E-3,-1.7979085E-2,4.1223247E-2,2.2842137E-2,1.6832953E-2,3.0757367E-4],"categories":[],"categories_nodes":[],"categories_segments":[],"categories_sizes":[],"default_left":[0,0,0,0,0,0,0,0,0,0,0,0,0,0,0,0,0,0,0,0,0,0,0,0,0,0,0,0,0,0,0,0,0,0,0,0,0,0,0,0,0,0,0,0,0,0,0,0,0,0,0,0,0,0,0,0,0,0,0,0,0],"id":1,"left_children":[1,3,5,7,9,11,13,15,17,19,21,23,25,27,29,31,33,35,-1,37,39,41,43,45,47,49,51,53,55,57,59,-1,-1,-1,-1,-1,-1,-1,-1,-1,-1,-1,-1,-1,-1,-1,-1,-1,-1,-1,-1,-1,-1,-1,-1,-1,-1,-1,-1,-1,-1],"loss_changes":[1.4167958E5,1.3478103E5,3.7456062E4,3.7571719E3,2.6669316E3,5.718797E3,3.9443037E3,2.5514766E3,1.5053125E2,1.0788965E3,1.026835E3,2.8596719E3,8.899727E2,3.496952E2,8.220239E2,2.1223242E2,2.1071406E3,8.05E1,0E0,3.3578125E2,8.2418994E2,1.4737488E2,4.4869257E2,1.4256172E3,1.911293E3,4.3886523E2,1.5588805E2,3.4336987E2,1.7120416E2,5.568071E2,2.836671E2,0E0,0E0,0E0,0E0,0E0,0E0,0E0,0E0,0E0,0E0,0E0,0E0,0E0,0E0,0E0,0E0,0E0,0E0,0E0,0E0,0E0,0E0,0E0,0E0,0E0,0E0,0E0,0E0,0E0,0E0],"parents":[2147483647,0,0,1,1,2,2,3,3,4,4,5,5,6,6,7,7,8,8,9,9,10,10,11,11,12,12,13,13,14,14,15,15,16,16,17,17,19,19,20,20,21,21,22,22,23,23,24,24,25,25,26,26,27,27,28,28,29,29,30,30],"right_children":[2,4,6,8,10,12,14,16,18,20,22,24,26,28,30,32,34,36,-1,38,40,42,44,46,48,50,52,54,56,58,60,-1,-1,-1,-1,-1,-1,-1,-1,-1,-1,-1,-1,-1,-1,-1,-1,-1,-1,-1,-1,-1,-1,-1,-1,-1,-1,-1,-1,-1,-1],"split_conditions":[1E0,1E0,1E0,1E0,1E0,1E0,1E0,1E0,1E0,1E0,1E0,1E0,1E0,7E0,2.02E3,1E0,1E0,1E0,-9.40658E-2,1E0,1E0,1.2E1,2.017E3,1E0,1E0,2.017E3,1E0,4E0,1E0,4E0,9E0,7.4687764E-2,-9.570337E-2,5.2244354E-2,-1.7537657E-3,8.1260644E-2,7.321199E-2,-3.461689E-2,8.558112E-2,-2.3930527E-2,5.4876036E-3,-2.4139803E-2,-6.670976E-2,2.0593291E-2,-2.5427777E-3,-5.1748276E-2,-2.4615204E-2,-3.7913576E-2,-5.8628507E-3,-7.555621E-2,-2.238212E-2,-6.375833E-3,6.6092783E-3,-1.4154558E-2,-4.4346657E-2,1.3242903E-3,-1.7979085E-2,4.1223247E-2,2.2842137E-2,1.6832953E-2,3.0757367E-4],"split_indices":[149,148,19,19,19,114,152,172,151,147,152,147,152,1,0,173,168,172,0,146,10,1,0,10,90,0,147,1,153,1,1,0,0,0,0,0,0,0,0,0,0,0,0,0,0,0,0,0,0,0,0,0,0,0,0,0,0,0,0,0,0],"split_type":[0,0,0,0,0,0,0,0,0,0,0,0,0,0,0,0,0,0,0,0,0,0,0,0,0,0,0,0,0,0,0,0,0,0,0,0,0,0,0,0,0,0,0,0,0,0,0,0,0,0,0,0,0,0,0,0,0,0,0,0,0],"sum_hessian":[4.2340094E5,2.1445022E5,2.0895072E5,1.3683973E5,7.761048E4,1.6841003E5,4.054069E4,1.0669027E5,3.014946E4,6.39334E4,1.367708E4,1.561028E5,1.2307234E4,8.473854E3,3.2066836E4,1.3472974E4,9.32173E4,3.0136967E4,1.2494295E1,3.366058E4,3.027282E4,3.6372485E3,1.0039831E4,6.954008E4,8.656273E4,2.9571265E3,9.350108E3,3.81446E3,4.6593936E3,1.9656762E4,1.2410075E4,1.3455482E4,1.7491186E1,9.1374266E4,1.8430325E3,3.6274E3,2.6509566E4,3.3603293E4,5.7286556E1,2.766815E4,2.6046694E3,3.4216558E3,2.1559262E2,2.9789553E3,7.060876E3,6.4301887E4,5.2381924E3,8.162976E4,4.932967E3,4.588185E2,2.4983079E3,4.1753906E3,5.1747173E3,2.1173936E3,1.6970665E3,2.6075308E3,2.0518628E3,5.881839E3,1.3774922E4,8.710273E3,3.6998018E3],"tree_param":{"num_deleted":"0","num_feature":"175","num_nodes":"61","size_leaf_vector":"1"}},{"base_weights":[-1.8548729E-3,7.888514E-1,-4.4597542E-1,1.1654663E0,-4.7724634E-1,-6.3574237E-1,2.9738998E-1,1.4525245E0,-2.9726857E-1,-5.8221865E-1,2.2265044E-1,-3.6388198E-1,-7.8772295E-1,-2.341404E-1,4.4728833E-1,1.5147092E0,-7.817572E-1,-3.764753E-1,1.3168027E-1,-6.568051E-1,-2.7370387E-1,-3.0592677E-1,3.7933335E-1,1.36854E-2,-5.98182E-1,-8.334956E-1,-1.8536933E-1,-2.0519927E-1,-1.2129767E0,4.790172E-1,-6.296776E-1,7.611676E-2,4.1583613E-2,-4.087239E-2,6.6427015E-2,-1.6296048E-2,-4.4958074E-2,1.3087719E-2,-4.148719E-2,-4.1331466E-2,-2.6168475E-2,-3.43261E-2,-4.9581793E-3,-7.127315E-2,-7.152232E-3,3.8893055E-2,1.5306033E-2,3.295594E-2,-5.3510733E-2,-3.6846984E-2,-2.2003014E-2,-4.9964055E-2,-3.510087E-2,-3.4132417E-2,-1.6846162E-3,-4.4795923E-4,-1.5863668E-2,1.9867912E-2,-7.726157E-2,2.8894756E-2,3.8206128E-3,-1.3404267E-2,-6.725916E-2],"categories":[],"categories_nodes":[],"categories_segments":[],"categories_sizes":[],"default_left":[0,0,0,0,0,0,0,0,0,0,0,0,0,0,0,0,0,0,0,0,0,0,0,0,0,0,0,0,0,0,0,0,0,0,0,0,0,0,0,0,0,0,0,0,0,0,0,0,0,0,0,0,0,0,0,0,0,0,0,0,0,0,0],"id":2,"left_children":[1,3,5,7,9,11,13,15,17,19,21,23,25,27,29,31,33,35,37,39,41,43,45,47,49,51,53,55,57,59,61,-1,-1,-1,-1,-1,-1,-1,-1,-1,-1,-1,-1,-1,-1,-1,-1,-1,-1,-1,-1,-1,-1,-1,-1,-1,-1,-1,-1,-1,-1,-1,-1],"loss_changes":[1.4809872E5,7.2326625E4,3.809513E4,4.9088125E4,2.555087E3,8.888398E3,4.3758486E3,1.3579234E4,6.5168774E2,6.956826E2,3.7580093E2,6.8244414E3,3.8043984E3,3.4200818E2,1.4641455E3,4.9398438E2,2.0044934E2,4.275205E2,3.741709E2,5.5140137E2,4.2427267E2,1.8903186E2,1.0186685E2,2.0667338E4,1.0441211E3,2.7946406E3,7.351144E2,2.581102E2,1.8614227E2,1.6565352E3,3.1693655E2,0E0,0E0,0E0,0E0,0E0,0E0,0E0,0E0,0E0,0E0,0E0,0E0,0E0,0E0,0E0,0E0,0E0,0E0,0E0,0E0,0E0,0E0,0E0,0E0,0E0,0E0,0E0,0E0,0E0,0E0,0E0,0E0],"parents":[2147483647,0,0,1,1,2,2,3,3,4,4,5,5,6,6,7,7,8,8,9,9,10,10,11,11,12,12,13,13,14,14,15,15,16,16,17,17,18,18,19,19,20,20,21,21,22,22,23,23,24,24,25,25,26,26,27,27,28,28,29,29,30,30],"right_children":[2,4,6,8,10,12,14,16,18,20,22,24,26,28,30,32,34,36,38,40,42,44,46,48,50,52,54,56,58,60,62,-1,-1,-1,-1,-1,-1,-1,-1,-1,-1,-1,-1,-1,-1,-1,-1,-1,-1,-1,-1,-1,-1,-1,-1,-1,-1,-1,-1,-1,-1,-1,-1],"split_conditions":[1E0,1E0,1E0,1E0,1E0,1E0,1E0,1E0,1E0,1E0,1E0,1E0,1E0,1E0,1E0,1E0,1E0,1E0,1E0,1E0,1E0,3E0,2.015E3,1E0,1E0,1E0,1E0,1E0,2E0,1E0,8E0,7.611676E-2,4.1583613E-2,-4.087239E-2,6.6427015E-2,-1.6296048E-2,-4.4958074E-2,1.3087719E-2,-4.148719E-2,-4.1331466E-2,-2.6168475E-2,-3.43261E-2,-4.9581793E-3,-7.127315E-2,-7.152232E-3,3.8893055E-2,1.5306033E-2,3.295594E-2,-5.3510733E-2,-3.6846984E-2,-2.2003014E-2,-4.9964055E-2,-3.510087E-2,-3.4132417E-2,-1.6846162E-3,-4.4795923E-4,-1.5863668E-2,1.9867912E-2,-7.726157E-2,2.8894756E-2,3.8206128E-3,-1.3404267E-2,-6.725916E-2],"split_indices":[167,149,19,148,19,149,152,150,19,166,152,148,114,150,150,168,29,162,166,147,152,1,0,150,147,147,152,149,1,148,1,0,0,0,0,0,0,0,0,0,0,0,0,0,0,0,0,0,0,0,0,0,0,0,0,0,0,0,0,0,0,0,0],"split_type":[0,0,0,0,0,0,0,0,0,0,0,0,0,0,0,0,0,0,0,0,0,0,0,0,0,0,0,0,0,0,0,0,0,0,0,0,0,0,0,0,0,0,0,0,0,0,0,0,0,0,0,0,0,0,0,0,0,0,0,0,0,0,0],"sum_hessian":[4.2172875E5,1.5167962E5,2.7004912E5,1.16905E5,3.4774617E4,2.1513056E5,5.491856E4,9.772642E4,1.9178576E4,3.0239402E4,4.5352153E3,7.714257E4,1.37988E5,1.2080671E4,4.283789E4,9.508046E4,2.6459617E3,1.6189295E4,2.9892812E3,2.4351148E4,5.8882544E3,1.0367472E3,3.4984683E3,2.9540268E4,4.7602305E4,1.2824249E5,9.745498E3,1.1734916E4,3.4575504E2,4.1612484E4,1.2254053E3,9.4029414E4,1.0510469E3,2.602558E3,4.340335E1,1.4763033E4,1.4262612E3,2.633689E3,3.5559235E2,1.0712324E4,1.3638824E4,1.7488909E3,4.1393633E3,1.3069449E2,9.060527E2,5.414579E2,2.9570105E3,1.8515297E4,1.1024971E4,2.535164E4,2.2250664E4,5.6718082E4,7.1524414E4,2.2769443E3,7.468553E3,4.266106E3,7.46881E3,5.9103374E1,2.8665164E2,3.340736E4,8.205127E3,8.149379E2,4.1046725E2],"tree_param":{"num_deleted":"0","num_feature":"175","num_nodes":"63","size_leaf_vector":"1"}},{"base_weights":[-1.1262529E-3,7.540597E-1,-4.2429498E-1,1.1130368E0,-4.3920884E-1,-6.113438E-1,2.977016E-1,1.388402E0,-2.8538737E-1,-5.484722E-1,2.6714867E-1,-3.593359E-1,-7.520504E-1,-2.0694873E-1,4.3957546E-1,1.4480926E0,-7.605995E-1,-7.637135E-2,-4.831311E-1,-8.338366E-1,-4.202519E-1,3.8573933E-1,-3.4630362E-2,7.7631418E-3,-5.8793014E-1,-7.960769E-1,-1.7880002E-1,-1.7848583E-1,-1.1636645E0,5.8311784E-1,4.3179784E-3,7.278149E-2,3.7560627E-2,-4.306914E-2,5.9459982E-3,-8.305325E-3,1.4090476E-2,-3.6758915E-2,-1.5888317E-2,-4.2796772E-2,2.5523335E-2,-2.1813964E-2,4.0006023E-2,2.5820721E-2,-1.6378056E-3,1.2610085E-2,-3.5499383E-2,3.0005667E-2,-4.736704E-2,-3.5693474E-2,-2.218859E-2,-4.700288E-2,-3.405383E-2,-3.445233E-2,-1.4160211E-3,-3.9684977E-3,-2.4255792E-2,1.6841302E-2,-7.370635E-2,3.0848114E-2,-2.1447798E-2,9.912292E-3,-4.122663E-2],"categories":[],"categories_nodes":[],"categories_segments":[],"categories_sizes":[],"default_left":[0,0,0,0,0,0,0,0,0,0,0,0,0,0,0,0,0,0,0,0,0,0,0,0,0,0,0,0,0,0,0,0,0,0,0,0,0,0,0,0,0,0,0,0,0,0,0,0,0,0,0,0,0,0,0,0,0,0,0,0,0,0,0],"id":3,"left_children":[1,3,5,7,9,11,13,15,17,19,21,23,25,27,29,31,33,35,37,39,41,43,45,47,49,51,53,55,57,59,61,-1,-1,-1,-1,-1,-1,-1,-1,-1,-1,-1,-1,-1,-1,-1,-1,-1,-1,-1,-1,-1,-1,-1,-1,-1,-1,-1,-1,-1,-1,-1,-1],"loss_changes":[1.343855E5,6.468903E4,3.6396125E4,4.4704688E4,2.6956323E3,7.5897266E3,3.970456E3,1.2442891E4,7.8938794E2,1.1063643E3,1.6747916E2,6.435913E3,3.4664766E3,3.311839E2,2.7044092E3,4.9459375E2,2.325116E2,2.9852585E2,4.0882617E2,2.78979E2,4.0858472E2,1.8372925E2,2.5607812E2,1.6651848E4,8.577549E2,2.111461E3,7.5229004E2,3.591717E2,1.642015E2,1.1152363E3,1.7258237E3,0E0,0E0,0E0,0E0,0E0,0E0,0E0,0E0,0E0,0E0,0E0,0E0,0E0,0E0,0E0,0E0,0E0,0E0,0E0,0E0,0E0,0E0,0E0,0E0,0E0,0E0,0E0,0E0,0E0,0E0,0E0,0E0],"parents":[2147483647,0,0,1,1,2,2,3,3,4,4,5,5,6,6,7,7,8,8,9,9,10,10,11,11,12,12,13,13,14,14,15,15,16,16,17,17,18,18,19,19,20,20,21,21,22,22,23,23,24,24,25,25,26,26,27,27,28,28,29,29,30,30],"right_children":[2,4,6,8,10,12,14,16,18,20,22,24,26,28,30,32,34,36,38,40,42,44,46,48,50,52,54,56,58,60,62,-1,-1,-1,-1,-1,-1,-1,-1,-1,-1,-1,-1,-1,-1,-1,-1,-1,-1,-1,-1,-1,-1,-1,-1,-1,-1,-1,-1,-1,-1,-1,-1],"split_conditions":[1E0,1E0,1E0,1E0,1E0,1E0,1E0,1E0,1E0,1E0,1E0,1E0,1E0,1E0,1E0,1E0,1E0,1E0,1E0,1E0,1E0,9E0,2.02E3,1E0,1E0,1E0,1E0,1E0,2E0,1E0,1E0,7.278149E-2,3.7560627E-2,-4.306914E-2,5.9459982E-3,-8.305325E-3,1.4090476E-2,-3.6758915E-2,-1.5888317E-2,-4.2796772E-2,2.5523335E-2,-2.1813964E-2,4.0006023E-2,2.5820721E-2,-1.6378056E-3,1.2610085E-2,-3.5499383E-2,3.0005667E-2,-4.736704E-2,-3.5693474E-2,-2.218859E-2,-4.700288E-2,-3.405383E-2,-3.445233E-2,-1.4160211E-3,-3.9684977E-3,-2.4255792E-2,1.6841302E-2,-7.370635E-2,3.0848114E-2,-2.1447798E-2,9.912292E-3,-4.122663E-2],"split_indices":[167,149,19,148,19,149,152,150,174,152,174,148,114,150,174,168,19,19,152,60,6,1,0,150,147,147,152,148,1,150,148,0,0,0,0,0,0,0,0,0,0,0,0,0,0,0,0,0,0,0,0,0,0,0,0,0,0,0,0,0,0,0,0],"split_type":[0,0,0,0,0,0,0,0,0,0,0,0,0,0,0,0,0,0,0,0,0,0,0,0,0,0,0,0,0,0,0,0,0,0,0,0,0,0,0,0,0,0,0,0,0,0,0,0,0,0,0,0,0,0,0,0,0,0,0,0,0,0,0],"sum_hessian":[4.2051634E5,1.5101484E5,2.695015E5,1.1609074E5,3.4924105E4,2.1404792E5,5.5453594E4,9.699195E4,1.9098787E4,3.0245744E4,4.678361E3,7.6692984E4,1.3735494E5,1.21686875E4,4.3284906E4,9.437103E4,2.6209202E3,9.285431E3,9.813357E3,9.375138E3,2.0870605E4,3.358347E3,1.3200138E3,2.9430912E4,4.7262074E4,1.275579E5,9.797032E3,1.1818273E4,3.5041446E2,3.2549994E4,1.0734912E4,9.336021E4,1.0108207E3,2.3514863E3,2.694339E2,7.425623E3,1.8598075E3,3.8863618E3,5.9269956E3,9.223871E3,1.5126686E2,2.0600695E4,2.699103E2,2.5590503E3,7.9929675E2,9.269528E2,3.93061E2,1.816528E4,1.1265634E4,2.5222922E4,2.2039152E4,5.66388E4,7.09191E4,2.230447E3,7.566585E3,8.932249E3,2.8860244E3,6.005909E1,2.9035538E2,3.1497102E4,1.0528936E3,8.700094E3,2.0348179E3],"tree_param":{"num_deleted":"0","num_feature":"175","num_nodes":"63","size_leaf_vector":"1"}},{"base_weights":[-1.6976033E-3,4.9257058E-1,-5.054006E-1,1.0165757E0,-4.1538095E-1,-6.8900335E-1,2.4498984E-1,1.2615224E0,-8.945891E-1,-2.2931147E-1,-6.1358076E-1,-7.293491E-1,-1.637939E-1,-2.5804847E-1,3.801075E-1,1.2683659E0,-9.74489E-1,-9.2036146E-1,5.5717534E-1,-3.6760074E-1,2.0337285E-1,-7.3749185E-1,-4.7777018E-1,-8.585768E-1,-6.2579465E-1,-5.932361E-1,-2.8493775E-2,-1.8779574E-1,-7.523569E-1,4.9573198E-1,3.748153E-2,6.0796738E-2,7.2068386E-2,3.7996653E-2,-6.2342938E-2,-4.9757548E-2,-2.0694224E-2,3.233435E-2,-8.479452E-2,-1.8713195E-2,8.7636225E-2,-1.774964E-2,1.7928027E-2,-4.003566E-2,-2.1160953E-2,-2.50666E-2,2.0369235E-2,-4.3801557E-2,-8.8517135E-3,-2.0611625E-2,-3.4386642E-2,-3.5253044E-2,2.1344412E-2,-6.848873E-3,3.0250004E-3,-4.516729E-4,-2.7320389E-2,-3.483824E-2,-9.703368E-2,3.1535096E-2,1.3278018E-2,-2.1262076E-2,1.6111797E-2],"categories":[],"categories_nodes":[],"categories_segments":[],"categories_sizes":[],"default_left":[0,0,0,0,0,0,0,0,0,0,0,0,0,0,0,0,0,0,0,0,0,0,0,0,0,0,0,0,0,0,0,0,0,0,0,0,0,0,0,0,0,0,0,0,0,0,0,0,0,0,0,0,0,0,0,0,0,0,0,0,0,0,0],"id":4,"left_children":[1,3,5,7,9,11,13,15,17,19,21,23,25,27,29,31,33,35,37,39,41,43,45,47,49,51,53,55,57,59,61,-1,-1,-1,-1,-1,-1,-1,-1,-1,-1,-1,-1,-1,-1,-1,-1,-1,-1,-1,-1,-1,-1,-1,-1,-1,-1,-1,-1,-1,-1,-1,-1],"loss_changes":[1.04351945E5,1.0065144E5,2.8600719E4,6.279586E4,2.854871E3,3.5340078E3,2.7738296E3,1.8206406E3,5.7070215E2,2.3893943E3,6.3046875E2,2.0721562E3,6.9137634E2,2.999322E2,1.2743672E3,1.0734844E3,1.7259793E2,5.6679297E2,5.483152E1,4.2817554E2,8.382195E2,3.890791E2,3.7324927E2,8.194531E2,1.1371211E3,3.255031E2,8.737602E1,4.850943E2,6.965936E1,7.470303E2,1.0697516E3,0E0,0E0,0E0,0E0,0E0,0E0,0E0,0E0,0E0,0E0,0E0,0E0,0E0,0E0,0E0,0E0,0E0,0E0,0E0,0E0,0E0,0E0,0E0,0E0,0E0,0E0,0E0,0E0,0E0,0E0,0E0,0E0],"parents":[2147483647,0,0,1,1,2,2,3,3,4,4,5,5,6,6,7,7,8,8,9,9,10,10,11,11,12,12,13,13,14,14,15,15,16,16,17,17,18,18,19,19,20,20,21,21,22,22,23,23,24,24,25,25,26,26,27,27,28,28,29,29,30,30],"right_children":[2,4,6,8,10,12,14,16,18,20,22,24,26,28,30,32,34,36,38,40,42,44,46,48,50,52,54,56,58,60,62,-1,-1,-1,-1,-1,-1,-1,-1,-1,-1,-1,-1,-1,-1,-1,-1,-1,-1,-1,-1,-1,-1,-1,-1,-1,-1,-1,-1,-1,-1,-1,-1],"split_conditions":[1E0,1E0,1E0,1E0,1E0,1E0,1E0,1E0,1E0,1E0,1E0,1E0,1E0,1E0,1E0,1E0,1E0,1E0,1E0,1E0,1E0,1E0,1E0,1E0,2.017E3,1E0,1E0,2.021E3,1E0,2.02E3,1E0,6.0796738E-2,7.2068386E-2,3.7996653E-2,-6.2342938E-2,-4.9757548E-2,-2.0694224E-2,3.233435E-2,-8.479452E-2,-1.8713195E-2,8.7636225E-2,-1.774964E-2,1.7928027E-2,-4.003566E-2,-2.1160953E-2,-2.50666E-2,2.0369235E-2,-4.3801557E-2,-8.8517135E-3,-2.0611625E-2,-3.4386642E-2,-3.5253044E-2,2.1344412E-2,-6.848873E-3,3.0250004E-3,-4.516729E-4,-2.7320389E-2,-3.483824E-2,-9.703368E-2,3.1535096E-2,1.3278018E-2,-2.1262076E-2,1.6111797E-2],"split_indices":[149,148,19,150,174,114,152,151,84,19,147,147,152,166,174,19,172,19,168,146,152,166,32,32,0,168,147,0,169,0,147,0,0,0,0,0,0,0,0,0,0,0,0,0,0,0,0,0,0,0,0,0,0,0,0,0,0,0,0,0,0,0,0],"split_type":[0,0,0,0,0,0,0,0,0,0,0,0,0,0,0,0,0,0,0,0,0,0,0,0,0,0,0,0,0,0,0,0,0,0,0,0,0,0,0,0,0,0,0,0,0,0,0,0,0,0,0,0,0,0,0,0,0,0,0,0,0,0,0],"sum_hessian":[4.191421E5,2.1155234E5,2.0758975E5,1.3413755E5,7.74148E4,1.6678219E5,4.0807555E4,1.18899055E5,1.5238497E4,3.9930395E4,3.74844E4,1.5488388E5,1.189832E4,8.640047E3,3.2167508E4,1.185367E5,3.6235495E2,1.4973056E4,2.6544168E2,3.0259404E4,9.670991E3,1.9598582E4,1.7885816E4,6.889772E4,8.598615E4,2.849771E3,9.048549E3,7.566107E3,1.0739402E3,2.4050756E4,8.116752E3,9.097364E4,2.7563059E4,4.89373E1,3.1341763E2,1.3045686E4,1.92737E3,2.5598466E2,9.456999E0,3.0165434E4,9.397152E1,2.1030227E3,7.5679688E3,1.6314994E4,3.2835881E3,1.7422482E4,4.63333E2,6.717703E4,1.7206913E3,1.9333191E4,6.665296E4,2.5685217E3,2.8124945E2,4.0775112E3,4.971038E3,5.049859E3,2.5162478E3,1.0274597E3,4.6480453E1,1.51596045E4,8.891151E3,3.0919197E3,5.024832E3],"tree_param":{"num_deleted":"0","num_feature":"175","num_nodes":"63","size_leaf_vector":"1"}},{"base_weights":[3.2826113E-3,4.7391215E-1,-4.7465688E-1,5.752455E-1,-8.080135E-1,-6.4576715E-1,2.2842588E-1,1.1185496E0,5.193374E-1,-8.3123034E-1,5.02782E-1,-7.770879E-1,-5.4117936E-1,-2.227696E-1,3.518733E-1,9.2614794E-1,1.4233947E0,4.327479E-1,8.4780186E-1,-8.8125986E-1,-4.789393E-1,6.112634E-1,-8.337208E-2,-8.2031107E-1,-5.2187586E-1,-7.3692805E-1,-4.606717E-1,-1.4106402E-1,-8.497917E-1,4.6803164E-1,5.6290287E-3,4.6720553E-2,-9.868952E-2,7.1418785E-2,-9.6784346E-2,1.3403936E-2,2.9441109E-2,3.675659E-2,4.7751054E-2,-4.6895985E-2,-2.2026343E-2,-5.085017E-2,-1.6754383E-2,1.566171E-2,5.5389702E-2,-4.1931134E-2,-7.725862E-3,-3.955336E-2,-2.0398255E-2,-3.8010195E-2,2.5628287E-2,-2.49317E-2,7.4553364E-3,-1.0341876E-2,5.6680148E-3,-4.458742E-2,2.871783E-2,2.3635544E-2,-5.447991E-2,-1.9226706E-2,1.2855956E-2],"categories":[],"categories_nodes":[],"categories_segments":[],"categories_sizes":[],"default_left":[0,0,0,0,0,0,0,0,0,0,0,0,0,0,0,0,0,0,0,0,0,0,0,0,0,0,0,0,0,0,0,0,0,0,0,0,0,0,0,0,0,0,0,0,0,0,0,0,0,0,0,0,0,0,0,0,0,0,0,0,0],"id":5,"left_children":[1,3,5,7,9,11,13,15,17,19,21,23,25,27,29,31,33,35,37,39,41,43,-1,45,47,49,51,53,55,57,59,-1,-1,-1,-1,-1,-1,-1,-1,-1,-1,-1,-1,-1,-1,-1,-1,-1,-1,-1,-1,-1,-1,-1,-1,-1,-1,-1,-1,-1,-1],"loss_changes":[9.4201484E4,2.7411469E4,2.4997746E4,5.9394375E3,4.708623E2,2.294836E3,2.2654492E3,1.0688027E3,5.0426523E3,2.6730078E2,6.4505325E1,8.168281E2,1.4657383E3,4.475332E2,1.2843889E3,2.6994434E2,1.2084863E2,3.6062207E3,4.461543E2,3.3170898E2,1.4603262E2,3.776622E1,0E0,7.7227734E2,3.2878882E2,7.8881055E2,1.5260566E3,1.2940945E2,6.0691833E1,1.7480273E2,7.8735583E2,0E0,0E0,0E0,0E0,0E0,0E0,0E0,0E0,0E0,0E0,0E0,0E0,0E0,0E0,0E0,0E0,0E0,0E0,0E0,0E0,0E0,0E0,0E0,0E0,0E0,0E0,0E0,0E0,0E0,0E0],"parents":[2147483647,0,0,1,1,2,2,3,3,4,4,5,5,6,6,7,7,8,8,9,9,10,10,11,11,12,12,13,13,14,14,15,15,16,16,17,17,18,18,19,19,20,20,21,21,23,23,24,24,25,25,26,26,27,27,28,28,29,29,30,30],"right_children":[2,4,6,8,10,12,14,16,18,20,22,24,26,28,30,32,34,36,38,40,42,44,-1,46,48,50,52,54,56,58,60,-1,-1,-1,-1,-1,-1,-1,-1,-1,-1,-1,-1,-1,-1,-1,-1,-1,-1,-1,-1,-1,-1,-1,-1,-1,-1,-1,-1,-1,-1],"split_conditions":[1E0,1E0,1E0,1E0,1E0,1E0,1E0,1E0,1E0,1E0,1E0,1E0,1E0,1E0,1E0,1E0,1E0,1E0,1E0,1E0,1E0,1E0,-8.337208E-2,1E0,1E0,1E0,1E0,1E0,1E0,1E0,1E0,4.6720553E-2,-9.868952E-2,7.1418785E-2,-9.6784346E-2,1.3403936E-2,2.9441109E-2,3.675659E-2,4.7751054E-2,-4.6895985E-2,-2.2026343E-2,-5.085017E-2,-1.6754383E-2,1.566171E-2,5.5389702E-2,-4.1931134E-2,-7.725862E-3,-3.955336E-2,-2.0398255E-2,-3.8010195E-2,2.5628287E-2,-2.49317E-2,7.4553364E-3,-1.0341876E-2,5.6680148E-3,-4.458742E-2,2.871783E-2,2.3635544E-2,-5.447991E-2,-1.9226706E-2,1.2855956E-2],"split_indices":[149,150,19,172,84,147,152,174,19,19,168,166,152,166,174,173,9,147,147,160,152,163,0,28,152,6,90,163,160,157,147,0,0,0,0,0,0,0,0,0,0,0,0,0,0,0,0,0,0,0,0,0,0,0,0,0,0,0,0,0,0],"split_type":[0,0,0,0,0,0,0,0,0,0,0,0,0,0,0,0,0,0,0,0,0,0,0,0,0,0,0,0,0,0,0,0,0,0,0,0,0,0,0,0,0,0,0,0,0,0,0,0,0,0,0,0,0,0,0,0,0,0,0,0,0],"sum_hessian":[4.1879703E5,2.110122E5,2.0778481E5,1.955546E5,1.5457603E4,1.6711411E5,4.0670715E4,1.8244E4,1.773106E5,1.5188941E4,2.6866135E2,7.4085586E4,9.3028516E4,8.736897E3,3.1933818E4,1.1187254E4,7.0567456E3,1.403215E5,3.69891E4,1.3298847E4,1.8900951E3,2.5655545E2,1.210591E1,6.3353676E4,1.0731911E4,2.7108338E4,6.592018E4,7.730749E3,1.0061485E3,2.3911586E4,8.0222324E3,1.1156144E4,3.1110807E1,7.046871E3,9.874355E0,6.8281984E4,7.203951E4,1.803992E4,1.8949182E4,1.1782927E4,1.51592E3,3.9743927E2,1.4926559E3,1.6134393E2,9.521151E1,6.165762E4,1.6960527E3,3.1892363E3,7.542675E3,2.6612977E4,4.953609E2,6.2056953E4,3.8632295E3,6.142884E3,1.5878649E3,9.777179E2,2.843059E1,2.3840662E4,7.092249E1,3.1440327E3,4.8781997E3],"tree_param":{"num_deleted":"0","num_feature":"175","num_nodes":"61","size_leaf_vector":"1"}},{"base_weights":[1.0131114E-2,6.963316E-1,-3.7373146E-1,1.0120217E0,-3.4434542E-1,-5.3417253E-1,2.4718162E-1,1.2673427E0,-2.7153948E-1,-4.1351065E-1,1.33614E-1,-3.4383678E-1,-6.4049506E-1,-2.2504869E-1,3.7769493E-1,1.320656E0,-6.2396896E-1,-4.8907585E-2,-4.9124616E-1,-6.103201E-1,-3.2235265E-1,2.755567E-1,-2.4602099E-1,1.1462126E-2,-5.672981E-1,-7.696429E-1,-5.3802955E-1,-1.19072095E-1,-5.7521135E-1,4.8730662E-1,6.720887E-2,6.6237666E-2,-4.7030568E-2,-3.6965817E-2,2.1366864E-3,-6.6524683E-3,1.3736135E-2,-3.7091166E-2,-1.6353479E-2,-3.9590385E-2,-2.378149E-2,-1.8523585E-2,5.4853507E-3,-1.6563004E-2,2.1030089E-2,-3.365626E-2,3.8811762E-4,2.663031E-2,-4.3313105E-2,-4.3604665E-2,-2.6219308E-2,-3.9157014E-2,6.866758E-3,-3.6883947E-2,-2.2942984E-2,2.3253782E-2,-1.2506795E-2,-5.6110797E-3,-3.7912667E-2,2.5769526E-2,-1.7410418E-2,1.2625153E-2,-3.6756974E-2],"categories":[],"categories_nodes":[],"categories_segments":[],"categories_sizes":[],"default_left":[0,0,0,0,0,0,0,0,0,0,0,0,0,0,0,0,0,0,0,0,0,0,0,0,0,0,0,0,0,0,0,0,0,0,0,0,0,0,0,0,0,0,0,0,0,0,0,0,0,0,0,0,0,0,0,0,0,0,0,0,0,0,0],"id":6,"left_children":[1,3,5,7,9,11,13,15,17,19,21,23,25,27,29,31,33,35,37,39,41,43,45,47,49,51,53,55,57,59,61,-1,-1,-1,-1,-1,-1,-1,-1,-1,-1,-1,-1,-1,-1,-1,-1,-1,-1,-1,-1,-1,-1,-1,-1,-1,-1,-1,-1,-1,-1,-1,-1],"loss_changes":[1.1026993E5,4.933743E4,2.6743633E4,3.7760992E4,1.1555503E3,4.3169688E3,3.3975386E3,9.691344E3,9.350947E2,5.47624E2,2.3821457E2,6.070623E3,1.8108438E3,4.428968E2,1.4698037E3,8.672656E2,2.027063E2,2.5864117E2,3.9559448E2,2.358794E2,4.339563E2,2.833026E2,1.3042612E2,1.3504711E4,6.134707E2,7.4134766E2,1.2060469E3,7.017775E2,2.349234E2,7.4916064E2,1.6756914E3,0E0,0E0,0E0,0E0,0E0,0E0,0E0,0E0,0E0,0E0,0E0,0E0,0E0,0E0,0E0,0E0,0E0,0E0,0E0,0E0,0E0,0E0,0E0,0E0,0E0,0E0,0E0,0E0,0E0,0E0,0E0,0E0],"parents":[2147483647,0,0,1,1,2,2,3,3,4,4,5,5,6,6,7,7,8,8,9,9,10,10,11,11,12,12,13,13,14,14,15,15,16,16,17,17,18,18,19,19,20,20,21,21,22,22,23,23,24,24,25,25,26,26,27,27,28,28,29,29,30,30],"right_children":[2,4,6,8,10,12,14,16,18,20,22,24,26,28,30,32,34,36,38,40,42,44,46,48,50,52,54,56,58,60,62,-1,-1,-1,-1,-1,-1,-1,-1,-1,-1,-1,-1,-1,-1,-1,-1,-1,-1,-1,-1,-1,-1,-1,-1,-1,-1,-1,-1,-1,-1,-1,-1],"split_conditions":[1E0,1E0,1E0,1E0,1E0,1E0,1E0,1E0,1E0,1E0,1E0,1E0,1E0,1E0,1E0,1E0,2.023E3,1E0,1E0,1E0,1E0,1E0,1E0,1E0,1E0,1E0,1E0,1E0,4E0,1E0,1E0,6.6237666E-2,-4.7030568E-2,-3.6965817E-2,2.1366864E-3,-6.6524683E-3,1.3736135E-2,-3.7091166E-2,-1.6353479E-2,-3.9590385E-2,-2.378149E-2,-1.8523585E-2,5.4853507E-3,-1.6563004E-2,2.1030089E-2,-3.365626E-2,3.8811762E-4,2.663031E-2,-4.3313105E-2,-4.3604665E-2,-2.6219308E-2,-3.9157014E-2,6.866758E-3,-3.6883947E-2,-2.2942984E-2,2.3253782E-2,-1.2506795E-2,-5.6110797E-3,-3.7912667E-2,2.5769526E-2,-1.7410418E-2,1.2625153E-2,-3.6756974E-2],"split_indices":[167,149,19,148,19,149,152,150,174,152,174,148,147,148,174,151,0,19,152,147,10,152,147,150,156,6,152,149,1,150,148,0,0,0,0,0,0,0,0,0,0,0,0,0,0,0,0,0,0,0,0,0,0,0,0,0,0,0,0,0,0,0,0],"split_type":[0,0,0,0,0,0,0,0,0,0,0,0,0,0,0,0,0,0,0,0,0,0,0,0,0,0,0,0,0,0,0,0,0,0,0,0,0,0,0,0,0,0,0,0,0,0,0,0,0,0,0,0,0,0,0,0,0,0,0,0,0,0,0],"sum_hessian":[4.186279E5,1.5017364E5,2.6845425E5,1.15221234E5,3.495241E4,2.1333072E5,5.5123527E4,9.6104516E4,1.911672E4,3.053399E4,4.4184214E3,7.645939E4,1.3687133E5,1.1935854E4,4.3187676E4,9.347003E4,2.6344802E3,9.495758E3,9.620963E3,9.663934E3,2.0870057E4,3.2161873E3,1.2022343E3,2.9521602E4,4.693779E4,6.0548875E4,7.632246E4,9.163779E3,2.772074E3,3.1918748E4,1.1268928E4,9.330139E4,1.686446E2,2.2458186E3,3.886617E2,7.536822E3,1.9589362E3,3.80698E3,5.8139834E3,4.1147134E3,5.54922E3,1.8778781E4,2.0912744E3,6.2020154E2,2.5959856E3,4.4748605E2,7.547482E2,1.8523666E4,1.0997935E4,5.790396E3,4.1147395E4,5.9661152E4,8.8772345E2,2.1669158E4,5.46533E4,1.678812E3,7.4849673E3,7.858765E2,1.9861975E3,3.0881135E4,1.037614E3,9.155291E3,2.1136362E3],"tree_param":{"num_deleted":"0","num_feature":"175","num_nodes":"63","size_leaf_vector":"1"}},{"base_weights":[-3.4625707E-3,6.5505594E-1,-3.6848944E-1,9.639377E-1,-3.5388088E-1,-2.0093715E-1,-4.6209827E-1,1.2150716E0,-2.8831044E-1,-5.7678014E-1,-2.5565445E-1,1.5872496E-1,-4.2806497E-1,-6.927563E-1,-3.7633336E-1,1.2669159E0,-5.940008E-1,-1.675493E-2,-5.7145095E-1,-5.939291E-1,6.226896E-1,-2.3546678E-1,-1.2884597E0,6.536306E-1,-7.959991E-1,-2.6386386E-1,-6.0838634E-1,-6.7764467E-1,-1.2024921E0,-2.5742632E-1,-5.4876983E-1,6.3728325E-2,2.8572906E-2,-3.6089696E-2,1.1884627E-2,-4.207987E-4,-9.733591E-2,-4.85264E-2,-2.3041386E-2,-3.0545235E-2,2.4705658E-2,-8.747466E-2,5.176082E-2,-8.5068755E-3,-2.2585897E-2,-7.0409544E-2,-1.3157404E-2,2.5894133E-2,3.974667E-2,-4.0886886E-2,2.369642E-2,-2.576825E-2,-8.404148E-3,-3.579827E-2,-2.4321979E-2,-3.0156488E-2,-3.8303126E-2,-6.242581E-2,7.5997405E-2,-4.419002E-3,-2.2633618E-2,-3.061117E-2,-9.357456E-3],"categories":[],"categories_nodes":[],"categories_segments":[],"categories_sizes":[],"default_left":[0,0,0,0,0,0,0,0,0,0,0,0,0,0,0,0,0,0,0,0,0,0,0,0,0,0,0,0,0,0,0,0,0,0,0,0,0,0,0,0,0,0,0,0,0,0,0,0,0,0,0,0,0,0,0,0,0,0,0,0,0,0,0],"id":7,"left_children":[1,3,5,7,9,11,13,15,17,19,21,23,25,27,29,31,33,35,37,39,41,43,45,47,49,51,53,55,57,59,61,-1,-1,-1,-1,-1,-1,-1,-1,-1,-1,-1,-1,-1,-1,-1,-1,-1,-1,-1,-1,-1,-1,-1,-1,-1,-1,-1,-1,-1,-1,-1,-1],"loss_changes":[9.9563484E4,4.6034613E4,4.1795156E3,3.556592E4,7.5791943E2,7.8028496E3,3.381836E3,8.835922E3,1.452602E3,2.1820068E2,5.0081653E2,1.7470041E4,1.733332E3,3.56125E2,2.5552246E3,4.8651562E2,2.7917828E2,1.5520195E2,4.0786694E2,1.9315112E2,1.4836362E2,3.3297998E2,5.6168762E1,4.6667383E2,3.488628E2,7.381101E2,3.6570312E2,2.960586E2,1.689071E2,2.434623E3,1.1670186E3,0E0,0E0,0E0,0E0,0E0,0E0,0E0,0E0,0E0,0E0,0E0,0E0,0E0,0E0,0E0,0E0,0E0,0E0,0E0,0E0,0E0,0E0,0E0,0E0,0E0,0E0,0E0,0E0,0E0,0E0,0E0,0E0],"parents":[2147483647,0,0,1,1,2,2,3,3,4,4,5,5,6,6,7,7,8,8,9,9,10,10,11,11,12,12,13,13,14,14,15,15,16,16,17,17,18,18,19,19,20,20,21,21,22,22,23,23,24,24,25,25,26,26,27,27,28,28,29,29,30,30],"right_children":[2,4,6,8,10,12,14,16,18,20,22,24,26,28,30,32,34,36,38,40,42,44,46,48,50,52,54,56,58,60,62,-1,-1,-1,-1,-1,-1,-1,-1,-1,-1,-1,-1,-1,-1,-1,-1,-1,-1,-1,-1,-1,-1,-1,-1,-1,-1,-1,-1,-1,-1,-1,-1],"split_conditions":[1E0,1E0,1E0,1E0,1E0,1E0,1E0,1E0,1E0,1E0,1E0,1E0,1E0,1E0,1E0,1E0,1.2E1,1E0,2.017E3,1E0,2.018E3,1E1,2.024E3,1E0,1E0,1E0,1E0,2.02E3,1E0,2.02E3,1E0,6.3728325E-2,2.8572906E-2,-3.6089696E-2,1.1884627E-2,-4.207987E-4,-9.733591E-2,-4.85264E-2,-2.3041386E-2,-3.0545235E-2,2.4705658E-2,-8.747466E-2,5.176082E-2,-8.5068755E-3,-2.2585897E-2,-7.0409544E-2,-1.3157404E-2,2.5894133E-2,3.974667E-2,-4.0886886E-2,2.369642E-2,-2.576825E-2,-8.404148E-3,-3.579827E-2,-2.4321979E-2,-3.0156488E-2,-3.8303126E-2,-6.242581E-2,7.5997405E-2,-4.419002E-3,-2.2633618E-2,-3.061117E-2,-9.357456E-3],"split_indices":[167,149,149,148,152,148,152,150,174,60,24,150,174,66,174,168,1,97,0,43,0,1,0,147,84,152,147,0,162,0,166,0,0,0,0,0,0,0,0,0,0,0,0,0,0,0,0,0,0,0,0,0,0,0,0,0,0,0,0,0,0,0,0],"split_type":[0,0,0,0,0,0,0,0,0,0,0,0,0,0,0,0,0,0,0,0,0,0,0,0,0,0,0,0,0,0,0,0,0,0,0,0,0,0,0,0,0,0,0,0,0,0,0,0,0,0,0,0,0,0,0,0,0,0,0,0,0,0,0],"sum_hessian":[4.141953E5,1.4771414E5,2.664812E5,1.1309166E5,3.4622484E4,9.551684E4,1.7096433E5,9.420018E4,1.8891479E4,1.0588892E4,2.4033594E4,3.6971664E4,5.854518E4,4.6337133E4,1.246272E5,9.1576086E4,2.6240894E3,9.643557E3,9.247922E3,1.0440132E4,1.4875903E2,2.3574031E4,4.5956076E2,2.4349693E4,1.2621971E4,3.0643553E4,2.7901625E4,4.500524E4,1.3318967E3,7.376414E4,5.0863055E4,9.057884E4,9.972454E2,2.2747039E3,3.4938547E2,9.603068E3,4.0488434E1,2.0054437E3,7.2424775E3,1.028018E4,1.5995274E2,2.1557045E1,1.27201996E2,1.810601E4,5.468022E3,4.1117245E2,4.8388298E1,1.2421329E4,1.1928363E4,1.2409895E4,2.1207639E2,8.450331E3,2.2193223E4,1.4821514E4,1.3080111E4,2.4426988E4,2.0578248E4,1.310287E3,2.1609634E1,3.9535387E4,3.4228754E4,4.326981E4,7.593246E3],"tree_param":{"num_deleted":"0","num_feature":"175","num_nodes":"63","size_leaf_vector":"1"}},{"base_weights":[-8.1611E-3,4.1074896E-1,-4.3149146E-1,8.798125E-1,-3.6711907E-1,-5.96872E-1,2.3162627E-1,1.0927168E0,-7.312042E-1,-2.026985E-1,-5.4412824E-1,-6.3520694E-1,-9.998157E-2,-2.1705794E-1,3.4917745E-1,1.0993477E0,-9.8589545E-1,-7.762176E-1,-3.354522E-1,-3.3081746E-1,1.911369E-1,-5.264844E-1,-1.2775215E0,-6.727134E-1,-1.774676E-1,-4.069132E-1,-6.8088906E-4,-9.715408E-2,-4.9938482E-1,4.4798055E-1,5.813041E-2,5.239248E-2,6.340529E-2,3.4024052E-2,-6.2013667E-2,-4.174046E-2,-2.0173052E-2,1.3156182E-2,-3.9700955E-2,-1.8619401E-2,1.915031E-3,-2.1058839E-2,1.7449632E-2,-2.7980298E-2,-6.682644E-3,-3.4655083E-2,-7.5489484E-2,-4.045227E-2,-2.8275672E-2,-4.8291728E-2,1.249791E-3,-5.5440385E-2,-1.365556E-2,-5.8820113E-3,4.722828E-3,1.0203401E-3,-3.5613857E-2,-6.792676E-2,-1.2835483E-2,2.8627584E-2,1.1682811E-2,-1.735311E-2,1.5523389E-2],"categories":[],"categories_nodes":[],"categories_segments":[],"categories_sizes":[],"default_left":[0,0,0,0,0,0,0,0,0,0,0,0,0,0,0,0,0,0,0,0,0,0,0,0,0,0,0,0,0,0,0,0,0,0,0,0,0,0,0,0,0,0,0,0,0,0,0,0,0,0,0,0,0,0,0,0,0,0,0,0,0,0,0],"id":8,"left_children":[1,3,5,7,9,11,13,15,17,19,21,23,25,27,29,31,33,35,37,39,41,43,45,47,49,51,53,55,57,59,61,-1,-1,-1,-1,-1,-1,-1,-1,-1,-1,-1,-1,-1,-1,-1,-1,-1,-1,-1,-1,-1,-1,-1,-1,-1,-1,-1,-1,-1,-1,-1,-1],"loss_changes":[7.286878E4,7.535709E4,2.2413184E4,4.419175E4,2.261039E3,3.1158242E3,2.1518374E3,1.5695938E3,2.676626E2,2.0325016E3,4.8345215E2,2.6070664E3,3.5712634E2,2.8668164E2,9.296011E2,9.8453125E2,1.5446075E2,2.9457812E2,4.222926E2,4.6638135E2,9.5587036E2,4.7530176E2,1.18167114E2,2.0508867E3,1.8359712E3,2.6868976E2,9.853262E1,4.3002637E2,5.2603076E2,6.442246E2,8.3793036E2,0E0,0E0,0E0,0E0,0E0,0E0,0E0,0E0,0E0,0E0,0E0,0E0,0E0,0E0,0E0,0E0,0E0,0E0,0E0,0E0,0E0,0E0,0E0,0E0,0E0,0E0,0E0,0E0,0E0,0E0,0E0,0E0],"parents":[2147483647,0,0,1,1,2,2,3,3,4,4,5,5,6,6,7,7,8,8,9,9,10,10,11,11,12,12,13,13,14,14,15,15,16,16,17,17,18,18,19,19,20,20,21,21,22,22,23,23,24,24,25,25,26,26,27,27,28,28,29,29,30,30],"right_children":[2,4,6,8,10,12,14,16,18,20,22,24,26,28,30,32,34,36,38,40,42,44,46,48,50,52,54,56,58,60,62,-1,-1,-1,-1,-1,-1,-1,-1,-1,-1,-1,-1,-1,-1,-1,-1,-1,-1,-1,-1,-1,-1,-1,-1,-1,-1,-1,-1,-1,-1,-1,-1],"split_conditions":[1E0,1E0,1E0,1E0,1E0,1E0,1E0,1E0,1E0,1E0,1E0,1E0,1E0,2.021E3,1E0,1E0,1E0,1E0,1E0,1E0,1E0,1E0,2.017E3,1E0,1E0,2.017E3,1E0,1E0,2.022E3,2.02E3,1E0,5.239248E-2,6.340529E-2,3.4024052E-2,-6.2013667E-2,-4.174046E-2,-2.0173052E-2,1.3156182E-2,-3.9700955E-2,-1.8619401E-2,1.915031E-3,-2.1058839E-2,1.7449632E-2,-2.7980298E-2,-6.682644E-3,-3.4655083E-2,-7.5489484E-2,-4.045227E-2,-2.8275672E-2,-4.8291728E-2,1.249791E-3,-5.5440385E-2,-1.365556E-2,-5.8820113E-3,4.722828E-3,1.0203401E-3,-3.5613857E-2,-6.792676E-2,-1.2835483E-2,2.8627584E-2,1.1682811E-2,-1.735311E-2,1.5523389E-2],"split_indices":[149,148,19,150,174,114,152,151,160,19,90,10,152,0,174,19,172,19,174,10,152,160,0,147,152,0,147,166,0,0,147,0,0,0,0,0,0,0,0,0,0,0,0,0,0,0,0,0,0,0,0,0,0,0,0,0,0,0,0,0,0,0,0],"split_type":[0,0,0,0,0,0,0,0,0,0,0,0,0,0,0,0,0,0,0,0,0,0,0,0,0,0,0,0,0,0,0,0,0,0,0,0,0,0,0,0,0,0,0,0,0,0,0,0,0,0,0,0,0,0,0,0,0,0,0,0,0,0,0],"sum_hessian":[4.1090284E5,2.065297E5,2.0437314E5,1.2883847E5,7.7691234E4,1.6357733E5,4.0795824E4,1.1379958E5,1.5038893E4,4.0278973E4,3.7412266E4,1.51861E5,1.1716321E4,8.469089E3,3.2326732E4,1.1343818E5,3.6139832E2,1.3502175E4,1.536718E3,3.039221E4,9.88676E3,3.6535027E4,8.7723566E2,1.4035969E5,1.15013125E4,2.8632166E3,8.8531045E3,5.9454204E3,2.5236687E3,2.4133488E4,8.193246E3,8.6920734E4,2.651745E4,4.7640472E1,3.1375784E2,1.1667056E4,1.8351188E3,6.6678174E2,8.6993634E2,2.7315855E4,3.0763572E3,2.0260719E3,7.8606885E3,3.369372E4,2.8413113E3,2.5062115E2,6.266145E2,6.178181E4,7.857788E4,2.3493748E3,9.151938E3,4.5725827E2,2.4059583E3,3.971014E3,4.8820903E3,4.9922754E3,9.531452E2,5.5482086E2,1.9688479E3,1.5261448E4,8.872039E3,3.1441416E3,5.0491045E3],"tree_param":{"num_deleted":"0","num_feature":"175","num_nodes":"63","size_leaf_vector":"1"}},{"base_weights":[-6.8371434E-4,6.098178E-1,-3.340309E-1,7.030315E-1,-3.301512E-2,-4.7766903E-1,2.2119592E-1,7.223809E-1,-6.527425E-1,-1.16572656E-1,7.58772E-1,-5.1108843E-1,-3.5875507E-2,-1.8525511E-1,3.3539945E-1,1.1187751E0,6.713052E-1,-1.0796648E0,-3.3142826E-1,-8.28658E-2,-9.6195513E-1,4.424419E-1,1.0429174E0,-5.2495086E-1,3.5172963E-1,-1.4596E-3,-7.5638133E-1,-1.5712342E-1,-1.1661168E0,4.4127187E-1,2.6610708E-2,4.854638E-2,6.652155E-2,2.9925609E-2,4.795439E-2,-6.4483665E-2,3.8444493E-3,-6.928762E-2,-3.352318E-3,3.104533E-2,-5.356811E-3,-5.6604594E-2,3.0978015E-2,-1.792189E-3,3.2213666E-2,-4.6382193E-4,5.861509E-2,-3.1498116E-2,-2.1728596E-2,3.6300775E-2,9.6371425E-3,-1.4492868E-2,4.954495E-3,-4.195665E-2,9.8265655E-2,-9.447328E-3,3.665163E-2,-2.949073E-2,-9.110602E-2,2.328427E-2,-1.2792565E-2,-1.394731E-2,1.2828446E-2],"categories":[],"categories_nodes":[],"categories_segments":[],"categories_sizes":[],"default_left":[0,0,0,0,0,0,0,0,0,0,0,0,0,0,0,0,0,0,0,0,0,0,0,0,0,0,0,0,0,0,0,0,0,0,0,0,0,0,0,0,0,0,0,0,0,0,0,0,0,0,0,0,0,0,0,0,0,0,0,0,0,0,0],"id":9,"left_children":[1,3,5,7,9,11,13,15,17,19,21,23,25,27,29,31,33,35,37,39,41,43,45,47,49,51,53,55,57,59,61,-1,-1,-1,-1,-1,-1,-1,-1,-1,-1,-1,-1,-1,-1,-1,-1,-1,-1,-1,-1,-1,-1,-1,-1,-1,-1,-1,-1,-1,-1,-1,-1],"loss_changes":[8.329816E4,8.662141E3,2.111439E4,3.312496E3,1.2113481E3,3.1054883E3,2.5259026E3,2.519414E3,2.4340784E2,4.7183862E2,1.5663416E2,2.3390352E3,3.668189E2,3.2917993E2,1.3887402E3,4.4327344E2,2.3094375E3,1.8533936E2,2.829336E2,2.7212042E2,1.7154059E2,8.0027756E1,1.25255066E2,1.8262578E3,1.8389087E2,4.0947266E2,1.5353876E2,3.288713E2,1.2468225E2,5.3849756E2,7.622445E2,0E0,0E0,0E0,0E0,0E0,0E0,0E0,0E0,0E0,0E0,0E0,0E0,0E0,0E0,0E0,0E0,0E0,0E0,0E0,0E0,0E0,0E0,0E0,0E0,0E0,0E0,0E0,0E0,0E0,0E0,0E0,0E0],"parents":[2147483647,0,0,1,1,2,2,3,3,4,4,5,5,6,6,7,7,8,8,9,9,10,10,11,11,12,12,13,13,14,14,15,15,16,16,17,17,18,18,19,19,20,20,21,21,22,22,23,23,24,24,25,25,26,26,27,27,28,28,29,29,30,30],"right_children":[2,4,6,8,10,12,14,16,18,20,22,24,26,28,30,32,34,36,38,40,42,44,46,48,50,52,54,56,58,60,62,-1,-1,-1,-1,-1,-1,-1,-1,-1,-1,-1,-1,-1,-1,-1,-1,-1,-1,-1,-1,-1,-1,-1,-1,-1,-1,-1,-1,-1,-1,-1,-1],"split_conditions":[1E0,1E0,1E0,1E0,1E0,1E0,1E0,1E0,2.019E3,1E0,8E0,1E0,1E0,1E0,1E0,1E0,1E0,1E0,1E0,1E0,1E0,2.017E3,1E0,1E0,1E0,1E0,1E0,1E0,2.019E3,1E0,1E0,4.854638E-2,6.652155E-2,2.9925609E-2,4.795439E-2,-6.4483665E-2,3.8444493E-3,-6.928762E-2,-3.352318E-3,3.104533E-2,-5.356811E-3,-5.6604594E-2,3.0978015E-2,-1.792189E-3,3.2213666E-2,-4.6382193E-4,5.861509E-2,-3.1498116E-2,-2.1728596E-2,3.6300775E-2,9.6371425E-3,-1.4492868E-2,4.954495E-3,-4.195665E-2,9.8265655E-2,-9.447328E-3,3.665163E-2,-2.949073E-2,-9.110602E-2,2.328427E-2,-1.2792565E-2,-1.394731E-2,1.2828446E-2],"split_indices":[167,169,19,150,114,114,152,172,0,150,1,6,150,150,174,174,19,153,152,172,134,0,156,147,174,152,164,160,0,150,147,0,0,0,0,0,0,0,0,0,0,0,0,0,0,0,0,0,0,0,0,0,0,0,0,0,0,0,0,0,0,0,0],"split_type":[0,0,0,0,0,0,0,0,0,0,0,0,0,0,0,0,0,0,0,0,0,0,0,0,0,0,0,0,0,0,0,0,0,0,0,0,0,0,0,0,0,0,0,0,0,0,0,0,0,0,0,0,0,0,0,0,0,0,0,0,0,0,0],"sum_hessian":[4.093075E5,1.4455836E5,2.6474912E5,1.26251266E5,1.8307098E4,2.103352E5,5.441394E4,1.2447524E5,1.7760255E3,1.6560332E4,1.7467642E3,1.9554319E5,1.4792002E4,1.1935347E4,4.2478594E4,1.4205637E4,1.102696E5,7.616627E2,1.01436273E3,1.5926417E4,6.339157E2,8.277801E2,9.1898413E2,1.9245158E5,3.0916167E3,1.4118609E4,6.7339185E2,1.1603706E4,3.3164093E2,3.1632523E4,1.0846071E4,8.366783E3,5.838853E3,8.801084E4,2.2258762E4,6.445157E2,1.1714707E2,2.0251503E2,8.118477E2,5.30112E2,1.5396305E4,5.726005E2,6.1315216E1,2.4589586E2,5.818842E2,1.0073157E2,8.1825256E2,8.901684E4,1.03434734E5,9.206533E2,2.1709634E3,3.6494148E3,1.0469195E4,6.541932E2,1.9198692E1,1.1203952E4,3.9975418E2,1.7755614E2,1.5408481E2,3.0562543E4,1.0699797E3,4.657374E3,6.1886973E3],"tree_param":{"num_deleted":"0","num_feature":"175","num_nodes":"63","size_leaf_vector":"1"}},{"base_weights":[9.847358E-4,5.9039855E-1,-3.224578E-1,8.769301E-1,-3.1723705E-1,-4.6330738E-1,2.1670021E-1,9.2446375E-1,-1.706687E-1,-3.9073616E-1,1.6518965E-1,-4.9998894E-1,9.838444E-3,3.1243187E-1,-3.0740391E-2,9.4592005E-1,-4.7254336E-1,-2.5847012E-1,4.278054E-1,-4.1029492E-1,3.4565952E-1,3.064672E-1,-2.7071482E-1,-3.2144073E-1,-6.013291E-1,-1.0559548E-1,1.0724743E-1,3.668748E-1,-6.808407E-2,1.3626608E-2,-8.471863E-1,4.744562E-2,-6.0899884E-2,-3.1637736E-2,2.7838144E-2,-1.3956777E-2,9.4479494E-2,3.1009564E-2,-1.038742E-1,-2.221344E-2,-2.3397732E-4,1.124339E-2,5.9258144E-2,2.171827E-2,-2.9563778E-3,-6.1281502E-2,-4.87125E-3,-1.2515004E-2,-3.7195884E-2,-3.670491E-2,-2.4907663E-2,-3.8265411E-3,-5.0578352E-2,1.8867096E-2,2.3876482E-3,2.2245687E-2,9.043999E-3,3.5740264E-2,-8.892408E-3,8.234885E-3,-8.166889E-3,2.582334E-2,-5.1297482E-2],"categories":[],"categories_nodes":[],"categories_segments":[],"categories_sizes":[],"default_left":[0,0,0,0,0,0,0,0,0,0,0,0,0,0,0,0,0,0,0,0,0,0,0,0,0,0,0,0,0,0,0,0,0,0,0,0,0,0,0,0,0,0,0,0,0,0,0,0,0,0,0,0,0,0,0,0,0,0,0,0,0,0,0],"id":10,"left_children":[1,3,5,7,9,11,13,15,17,19,21,23,25,27,29,31,33,35,37,39,41,43,45,47,49,51,53,55,57,59,61,-1,-1,-1,-1,-1,-1,-1,-1,-1,-1,-1,-1,-1,-1,-1,-1,-1,-1,-1,-1,-1,-1,-1,-1,-1,-1,-1,-1,-1,-1,-1,-1],"loss_changes":[7.7875586E4,3.7641406E4,2.0029754E4,5.478164E3,1.2314912E3,3.6295195E3,1.2941333E3,3.1547734E3,2.510588E2,4.3421777E2,2.8289075E2,3.5114766E3,1.6920747E2,8.160864E2,5.520966E2,6.7227344E2,2.6296237E2,1.8542868E2,2.9596057E2,4.045708E2,7.885981E1,1.6221744E2,1.8597366E2,2.11188E3,1.6956016E3,1.8126913E2,1.3112674E2,5.001245E2,4.2390378E2,3.8651297E2,1.9202625E2,0E0,0E0,0E0,0E0,0E0,0E0,0E0,0E0,0E0,0E0,0E0,0E0,0E0,0E0,0E0,0E0,0E0,0E0,0E0,0E0,0E0,0E0,0E0,0E0,0E0,0E0,0E0,0E0,0E0,0E0,0E0,0E0],"parents":[2147483647,0,0,1,1,2,2,3,3,4,4,5,5,6,6,7,7,8,8,9,9,10,10,11,11,12,12,13,13,14,14,15,15,16,16,17,17,18,18,19,19,20,20,21,21,22,22,23,23,24,24,25,25,26,26,27,27,28,28,29,29,30,30],"right_children":[2,4,6,8,10,12,14,16,18,20,22,24,26,28,30,32,34,36,38,40,42,44,46,48,50,52,54,56,58,60,62,-1,-1,-1,-1,-1,-1,-1,-1,-1,-1,-1,-1,-1,-1,-1,-1,-1,-1,-1,-1,-1,-1,-1,-1,-1,-1,-1,-1,-1,-1,-1,-1],"split_conditions":[1E0,1E0,1E0,1E0,1E0,1E0,1E0,1E0,1E0,1E0,9E0,1E0,1E0,1E0,1E0,1E0,1.2E1,1E0,2.022E3,1E0,2.024E3,1E0,1E1,1E0,1E0,1E0,3E0,2.021E3,2E0,7E0,2.015E3,4.744562E-2,-6.0899884E-2,-3.1637736E-2,2.7838144E-2,-1.3956777E-2,9.4479494E-2,3.1009564E-2,-1.038742E-1,-2.221344E-2,-2.3397732E-4,1.124339E-2,5.9258144E-2,2.171827E-2,-2.9563778E-3,-6.1281502E-2,-4.87125E-3,-1.2515004E-2,-3.7195884E-2,-3.670491E-2,-2.4907663E-2,-3.8265411E-3,-5.0578352E-2,1.8867096E-2,2.3876482E-3,2.2245687E-2,9.043999E-3,3.5740264E-2,-8.892408E-3,8.234885E-3,-8.166889E-3,2.582334E-2,-5.1297482E-2],"split_indices":[167,149,19,168,19,114,174,150,19,32,1,149,147,153,153,151,1,23,0,114,0,174,1,150,147,150,1,0,1,1,0,0,0,0,0,0,0,0,0,0,0,0,0,0,0,0,0,0,0,0,0,0,0,0,0,0,0,0,0,0,0,0,0],"split_type":[0,0,0,0,0,0,0,0,0,0,0,0,0,0,0,0,0,0,0,0,0,0,0,0,0,0,0,0,0,0,0,0,0,0,0,0,0,0,0,0,0,0,0,0,0,0,0,0,0,0,0,0,0,0,0,0,0,0,0,0,0,0,0],"sum_hessian":[4.0849038E5,1.4473569E5,2.637547E5,1.1000746E5,3.472823E4,2.0912344E5,5.463125E4,1.0523276E5,4.7747036E3,3.0136967E4,4.591265E3,1.9407716E5,1.504628E4,3.9391074E4,1.5240176E4,1.0364128E5,1.5914783E3,4.164328E3,6.1037537E2,2.9357668E4,7.7929944E2,3.46768E3,1.1235852E3,7.02717E4,1.2380546E5,6.8859927E3,8.1602876E3,3.4460605E4,4.93047E3,1.4455617E4,7.845585E2,1.0349872E5,1.4256117E2,1.3774618E3,2.140164E2,4.125509E3,3.8819405E1,5.675449E2,4.2830402E1,2.7088656E4,2.2690105E3,6.823828E2,9.691664E1,2.5688245E3,8.9885547E2,1.7164748E2,9.5193774E2,6.0145438E4,1.0126265E4,5.413596E4,6.96695E4,6.6729995E3,2.1299335E2,1.4720581E3,6.6882295E3,2.4274305E4,1.01863E4,6.055917E2,4.3248784E3,7.798369E3,6.6572485E3,9.0709946E1,6.938485E2],"tree_param":{"num_deleted":"0","num_feature":"175","num_nodes":"63","size_leaf_vector":"1"}},{"base_weights":[3.0217979E-3,5.6255686E-1,-2.998169E-1,8.4023684E-1,-3.0597296E-1,-2.1199663E-1,-4.112962E-1,1.0808944E0,-2.6817626E-1,-5.4375833E-1,-2.035704E-1,-1.8491001E-1,-6.895721E-1,-2.8106752E-1,-4.8811466E-1,1.1288761E0,-5.66968E-1,-7.0424445E-2,-4.6585587E-1,-4.511427E-1,-8.480941E-1,-1.8453605E-1,-1.2011733E0,3.8474597E-2,-2.8565428E-1,-7.450465E-1,1.3891287E-1,1.4546573E-1,-5.177533E-1,-5.2760255E-1,-2.6335654E-1,5.6652885E-2,-4.527838E-2,-3.0258268E-2,7.9385325E-2,-4.183377E-3,8.198002E-2,-2.3975326E-2,9.441479E-2,5.5701476E-2,-2.3529857E-2,-4.3545708E-2,8.900492E-2,-1.1106256E-2,9.426399E-3,-6.945361E-2,-4.9037743E-2,3.4573156E-2,-1.2161615E-2,-2.6955059E-2,-1.0241197E-2,-3.8177233E-2,4.2190317E-2,2.9420147E-3,1.0697112E-1,2.4016513E-2,-3.561124E-2,-2.6764587E-2,1.1158391E-2,-2.7513567E-2,1.5352824E-3,-3.3380732E-2,-4.7331215E-3],"categories":[],"categories_nodes":[],"categories_segments":[],"categories_sizes":[],"default_left":[0,0,0,0,0,0,0,0,0,0,0,0,0,0,0,0,0,0,0,0,0,0,0,0,0,0,0,0,0,0,0,0,0,0,0,0,0,0,0,0,0,0,0,0,0,0,0,0,0,0,0,0,0,0,0,0,0,0,0,0,0,0,0],"id":11,"left_children":[1,3,5,7,9,11,13,15,17,19,21,23,25,27,29,31,33,35,37,39,41,43,45,47,49,51,53,55,57,59,61,-1,-1,-1,-1,-1,-1,-1,-1,-1,-1,-1,-1,-1,-1,-1,-1,-1,-1,-1,-1,-1,-1,-1,-1,-1,-1,-1,-1,-1,-1,-1,-1],"loss_changes":[6.883341E4,3.4404E4,2.5802812E3,2.8833906E4,8.414043E2,1.9070146E3,1.1617109E3,7.0226797E3,7.5377966E2,2.9282178E2,4.5850775E2,3.1398354E3,3.6376514E2,4.3504043E3,6.481738E2,7.351875E2,2.0782526E2,2.1846875E2,3.107964E2,2.434347E2,1.470459E2,3.324867E2,1.7363037E1,7.977291E3,1.9697217E3,2.186123E2,7.955268E1,4.417408E3,3.602495E2,7.8635156E2,7.444975E2,0E0,0E0,0E0,0E0,0E0,0E0,0E0,0E0,0E0,0E0,0E0,0E0,0E0,0E0,0E0,0E0,0E0,0E0,0E0,0E0,0E0,0E0,0E0,0E0,0E0,0E0,0E0,0E0,0E0,0E0,0E0,0E0],"parents":[2147483647,0,0,1,1,2,2,3,3,4,4,5,5,6,6,7,7,8,8,9,9,10,10,11,11,12,12,13,13,14,14,15,15,16,16,17,17,18,18,19,19,20,20,21,21,22,22,23,23,24,24,25,25,26,26,27,27,28,28,29,29,30,30],"right_children":[2,4,6,8,10,12,14,16,18,20,22,24,26,28,30,32,34,36,38,40,42,44,46,48,50,52,54,56,58,60,62,-1,-1,-1,-1,-1,-1,-1,-1,-1,-1,-1,-1,-1,-1,-1,-1,-1,-1,-1,-1,-1,-1,-1,-1,-1,-1,-1,-1,-1,-1,-1,-1],"split_conditions":[1E0,1E0,1E0,1E0,1E0,1E0,1E0,1E0,1E0,1E0,1E0,1E0,1E0,1E0,1E0,1E0,1E0,1E0,1E0,1E0,1E0,1E0,1E0,1E0,1E0,1E0,1E0,1E0,1E0,1E0,1E0,5.6652885E-2,-4.527838E-2,-3.0258268E-2,7.9385325E-2,-4.183377E-3,8.198002E-2,-2.3975326E-2,9.441479E-2,5.5701476E-2,-2.3529857E-2,-4.3545708E-2,8.900492E-2,-1.1106256E-2,9.426399E-3,-6.945361E-2,-4.9037743E-2,3.4573156E-2,-1.2161615E-2,-2.6955059E-2,-1.0241197E-2,-3.8177233E-2,4.2190317E-2,2.9420147E-3,1.0697112E-1,2.4016513E-2,-3.561124E-2,-2.6764587E-2,1.1158391E-2,-2.7513567E-2,1.5352824E-3,-3.3380732E-2,-4.7331215E-3],"split_indices":[167,149,174,148,152,150,149,150,174,169,24,149,160,148,166,151,29,146,146,172,164,10,169,148,152,6,94,150,32,28,152,0,0,0,0,0,0,0,0,0,0,0,0,0,0,0,0,0,0,0,0,0,0,0,0,0,0,0,0,0,0,0,0],"split_type":[0,0,0,0,0,0,0,0,0,0,0,0,0,0,0,0,0,0,0,0,0,0,0,0,0,0,0,0,0,0,0,0,0,0,0,0,0,0,0,0,0,0,0,0,0,0,0,0,0,0,0,0,0,0,0,0,0,0,0,0,0,0,0],"sum_hessian":[4.062173E5,1.4265052E5,2.6356678E5,1.08092125E5,3.455839E4,1.4742911E5,1.1613768E5,8.880985E4,1.928228E4,1.0401387E4,2.4157004E4,1.3951748E5,7.9116157E3,4.3091035E4,7.304664E4,8.629739E4,2.5124553E3,9.640057E3,9.642223E3,7.976467E3,2.42492E3,2.3705879E4,4.5112494E2,4.3364387E4,9.61531E4,7.4152026E3,4.9641287E2,1.5378217E4,2.7712816E4,6.2129688E4,1.0916959E4,8.612083E4,1.7656865E2,2.4693977E3,4.305748E1,9.566917E3,7.313885E1,9.587426E3,5.479663E1,9.723627E1,7.8792305E3,2.404709E3,2.0210966E1,2.1536332E4,2.1695466E3,2.4066489E2,2.1046007E2,1.306911E4,3.0295277E4,2.3249059E4,7.290405E4,7.330379E3,8.4824E1,4.7829788E2,1.811498E1,1.1060395E4,4.3178228E3,2.7072262E4,6.405542E2,5.97055E4,2.4241853E3,3.2134053E3,7.703553E3],"tree_param":{"num_deleted":"0","num_feature":"175","num_nodes":"63","size_leaf_vector":"1"}},{"base_weights":[2.1024991E-3,5.401719E-1,-2.8731441E-1,8.0989957E-1,-2.989645E-1,-4.1703382E-1,2.1101515E-1,1.047031E0,-2.704034E-1,-3.6964062E-1,1.6472495E-1,-2.4792245E-1,-5.136652E-1,-1.6386774E-1,3.159649E-1,1.092157E0,-4.5195085E-1,-2.8349948E-1,8.486938E-2,-4.0087077E-1,9.195407E-3,1.3311881E-1,8.9114755E-1,1.2962171E-2,-4.0740615E-1,-5.4765147E-1,-7.817469E-2,-1.9402374E-1,6.8797576E-1,3.9220566E-1,-8.089125E-3,5.4949015E-2,2.7392372E-2,-2.5570465E-2,3.81409E-2,-1.733276E-2,2.7107135E-3,-2.1832248E-2,-2.6928156E-3,-3.8414072E-2,1.7000942E-2,1.009541E-2,-2.6887623E-3,5.209687E-2,-8.662598E-2,2.1125458E-2,-3.4495458E-2,-3.6960192E-2,-1.8060222E-2,-3.4349877E-2,-2.2029513E-2,-2.5573825E-2,2.3618469E-3,-8.640214E-3,-4.4653684E-2,4.985953E-2,-4.1433826E-2,3.9355844E-2,1.5611847E-2,-3.7692243E-3,2.7623758E-2],"categories":[],"categories_nodes":[],"categories_segments":[],"categories_sizes":[],"default_left":[0,0,0,0,0,0,0,0,0,0,0,0,0,0,0,0,0,0,0,0,0,0,0,0,0,0,0,0,0,0,0,0,0,0,0,0,0,0,0,0,0,0,0,0,0,0,0,0,0,0,0,0,0,0,0,0,0,0,0,0,0],"id":12,"left_children":[1,3,5,7,9,11,13,15,17,19,21,23,25,27,29,31,33,35,-1,37,39,41,43,45,47,49,51,53,55,57,59,-1,-1,-1,-1,-1,-1,-1,-1,-1,-1,-1,-1,-1,-1,-1,-1,-1,-1,-1,-1,-1,-1,-1,-1,-1,-1,-1,-1,-1,-1],"loss_changes":[6.29513E4,3.2001246E4,1.699197E4,2.7409438E4,1.1271594E3,3.4081523E3,2.136114E3,5.9352188E3,4.9679883E2,3.530896E2,1.0433489E2,3.1555654E3,1.9643789E3,3.0519394E2,1.047977E3,3.1573438E2,1.8563867E2,4.0809302E2,0E0,3.4224756E2,5.851128E2,5.6076897E1,7.678189E1,8.283379E3,7.212759E2,1.8364141E3,5.222064E2,1.6998944E2,1.9134583E2,1.08419E3,3.048427E2,0E0,0E0,0E0,0E0,0E0,0E0,0E0,0E0,0E0,0E0,0E0,0E0,0E0,0E0,0E0,0E0,0E0,0E0,0E0,0E0,0E0,0E0,0E0,0E0,0E0,0E0,0E0,0E0,0E0,0E0],"parents":[2147483647,0,0,1,1,2,2,3,3,4,4,5,5,6,6,7,7,8,8,9,9,10,10,11,11,12,12,13,13,14,14,15,15,16,16,17,17,19,19,20,20,21,21,22,22,23,23,24,24,25,25,26,26,27,27,28,28,29,29,30,30],"right_children":[2,4,6,8,10,12,14,16,18,20,22,24,26,28,30,32,34,36,-1,38,40,42,44,46,48,50,52,54,56,58,60,-1,-1,-1,-1,-1,-1,-1,-1,-1,-1,-1,-1,-1,-1,-1,-1,-1,-1,-1,-1,-1,-1,-1,-1,-1,-1,-1,-1,-1,-1],"split_conditions":[1E0,1E0,1E0,1E0,1E0,1E0,1E0,1E0,1E0,1E0,1E0,1E0,1E0,1E0,1E0,1E0,1E0,1E0,8.486938E-2,1E0,6E0,9E0,1E0,1E0,1E0,1E0,1E0,1E0,2.021E3,1E0,1.2E1,5.4949015E-2,2.7392372E-2,-2.5570465E-2,3.81409E-2,-1.733276E-2,2.7107135E-3,-2.1832248E-2,-2.6928156E-3,-3.8414072E-2,1.7000942E-2,1.009541E-2,-2.6887623E-3,5.209687E-2,-8.662598E-2,2.1125458E-2,-3.4495458E-2,-3.6960192E-2,-1.8060222E-2,-3.4349877E-2,-2.2029513E-2,-2.5573825E-2,2.3618469E-3,-8.640214E-3,-4.4653684E-2,4.985953E-2,-4.1433826E-2,3.9355844E-2,1.5611847E-2,-3.7692243E-3,2.7623758E-2],"split_indices":[167,149,19,148,19,149,152,150,146,114,160,148,114,160,148,168,24,19,0,10,1,1,169,150,156,147,152,150,0,149,1,0,0,0,0,0,0,0,0,0,0,0,0,0,0,0,0,0,0,0,0,0,0,0,0,0,0,0,0,0,0],"split_type":[0,0,0,0,0,0,0,0,0,0,0,0,0,0,0,0,0,0,0,0,0,0,0,0,0,0,0,0,0,0,0,0,0,0,0,0,0,0,0,0,0,0,0,0,0,0,0,0,0,0,0,0,0,0,0,0,0,0,0,0,0],"sum_hessian":[4.0424097E5,1.4138472E5,2.6285625E5,1.0699337E5,3.4391355E4,2.0856514E5,5.4291113E4,8.773513E4,1.9258232E4,2.9842871E4,4.5484844E3,7.584134E4,1.327238E5,1.1874516E4,4.2416598E4,8.517137E4,2.5637644E3,1.9131762E4,1.2647026E2,2.7570021E4,2.2728503E3,4.3599683E3,1.8851593E2,2.8773824E4,4.706752E4,1.2311545E5,9.608347E3,1.1469267E4,4.052497E2,3.43377E4,8.0788994E3,8.411591E4,1.055465E3,2.444685E3,1.190793E2,1.6117591E4,3.014171E3,2.4993182E4,2.5768396E3,6.780425E2,1.5948079E3,3.1868982E3,1.1730702E3,1.7884032E2,9.675601E0,1.8180729E4,1.0593095E4,5.751085E3,4.1316434E4,5.3489934E4,6.9625516E4,2.1560469E3,7.4523E3,1.1132587E4,3.3667923E2,3.3690424E2,6.834547E1,5.780903E3,2.8556795E4,7.2137583E3,8.651411E2],"tree_param":{"num_deleted":"0","num_feature":"175","num_nodes":"61","size_leaf_vector":"1"}},{"base_weights":[1.4722517E-3,5.203077E-1,-2.748546E-1,7.8398424E-1,-2.975987E-1,-1.8769385E-1,-3.8632196E-1,1.0157293E0,-2.618598E-1,-2.8201714E-1,-1.0848645E0,-1.6378213E-1,-6.092734E-1,-4.1719165E-1,-3.8166095E-2,1.0602299E0,-4.3834966E-1,-6.9541305E-2,-4.5301113E-1,-1.7758758E-1,-3.8812232E-1,-3.914177E-1,-1.234392E0,4.857423E-2,-2.6055643E-1,-6.831285E-1,3.846934E-1,-2.930565E-1,-4.91153E-1,-9.351868E-3,-9.108214E-1,5.3211283E-2,-4.4131055E-2,-2.3636336E-2,7.625969E-2,-5.505647E-3,3.1595625E-2,-2.3280082E-2,8.679982E-2,-8.188969E-3,-8.525835E-2,-2.276702E-2,-5.958427E-3,-4.300573E-2,7.5209424E-2,-7.218399E-2,-3.6303815E-2,3.317046E-2,-1.0986189E-2,-1.4726919E-2,-2.0971925E-3,-3.531277E-2,4.0111016E-2,-3.9186466E-2,2.8833477E-2,5.7977634E-3,-2.5796995E-2,-2.571174E-2,1.6552057E-3,1.2788074E-2,-7.3177377E-3,-6.528098E-2,1.0346546E-2],"categories":[],"categories_nodes":[],"categories_segments":[],"categories_sizes":[],"default_left":[0,0,0,0,0,0,0,0,0,0,0,0,0,0,0,0,0,0,0,0,0,0,0,0,0,0,0,0,0,0,0,0,0,0,0,0,0,0,0,0,0,0,0,0,0,0,0,0,0,0,0,0,0,0,0,0,0,0,0,0,0,0,0],"id":13,"left_children":[1,3,5,7,9,11,13,15,17,19,21,23,25,27,29,31,33,35,37,39,41,43,45,47,49,51,53,55,57,59,61,-1,-1,-1,-1,-1,-1,-1,-1,-1,-1,-1,-1,-1,-1,-1,-1,-1,-1,-1,-1,-1,-1,-1,-1,-1,-1,-1,-1,-1,-1,-1,-1],"loss_changes":[5.75181E4,3.0067516E4,2.543211E3,2.5553238E4,4.1663306E2,1.48081E3,1.2345312E3,5.5850938E3,7.0304016E2,3.692539E2,6.787976E1,2.8570012E3,5.790813E2,9.6859375E2,2.3526155E2,6.510703E2,1.7376465E2,2.714151E2,2.6515552E2,3.5408234E2,2.988191E2,1.0649917E2,5.6600708E1,7.179502E3,7.094512E2,2.527002E2,1.22921486E2,3.5915613E3,8.0008887E2,3.2905444E2,1.3224118E2,0E0,0E0,0E0,0E0,0E0,0E0,0E0,0E0,0E0,0E0,0E0,0E0,0E0,0E0,0E0,0E0,0E0,0E0,0E0,0E0,0E0,0E0,0E0,0E0,0E0,0E0,0E0,0E0,0E0,0E0,0E0,0E0],"parents":[2147483647,0,0,1,1,2,2,3,3,4,4,5,5,6,6,7,7,8,8,9,9,10,10,11,11,12,12,13,13,14,14,15,15,16,16,17,17,18,18,19,19,20,20,21,21,22,22,23,23,24,24,25,25,26,26,27,27,28,28,29,29,30,30],"right_children":[2,4,6,8,10,12,14,16,18,20,22,24,26,28,30,32,34,36,38,40,42,44,46,48,50,52,54,56,58,60,62,-1,-1,-1,-1,-1,-1,-1,-1,-1,-1,-1,-1,-1,-1,-1,-1,-1,-1,-1,-1,-1,-1,-1,-1,-1,-1,-1,-1,-1,-1,-1,-1],"split_conditions":[1E0,1E0,1E0,1E0,1E0,1E0,1E0,1E0,1E0,1E0,3E0,1E0,1E0,1E0,1E0,1E0,1E0,1E0,1E0,1E0,1E0,1E0,1E0,1E0,1E0,1E0,4E0,1E0,1E0,1E0,1E0,5.3211283E-2,-4.4131055E-2,-2.3636336E-2,7.625969E-2,-5.505647E-3,3.1595625E-2,-2.3280082E-2,8.679982E-2,-8.188969E-3,-8.525835E-2,-2.276702E-2,-5.958427E-3,-4.300573E-2,7.5209424E-2,-7.218399E-2,-3.6303815E-2,3.317046E-2,-1.0986189E-2,-1.4726919E-2,-2.0971925E-3,-3.531277E-2,4.0111016E-2,-3.9186466E-2,2.8833477E-2,5.7977634E-3,-2.5796995E-2,-2.571174E-2,1.6552057E-3,1.2788074E-2,-7.3177377E-3,-6.528098E-2,1.0346546E-2],"split_indices":[167,149,174,148,24,150,114,150,174,174,1,149,160,149,150,151,29,114,146,134,166,153,168,148,166,84,1,148,28,149,153,0,0,0,0,0,0,0,0,0,0,0,0,0,0,0,0,0,0,0,0,0,0,0,0,0,0,0,0,0,0,0,0],"split_type":[0,0,0,0,0,0,0,0,0,0,0,0,0,0,0,0,0,0,0,0,0,0,0,0,0,0,0,0,0,0,0,0,0,0,0,0,0,0,0,0,0,0,0,0,0,0,0,0,0,0,0,0,0,0,0,0,0,0,0,0,0,0,0],"sum_hessian":[4.011896E5,1.3941708E5,2.6177252E5,1.0542895E5,3.3988125E4,1.4690466E5,1.1486785E5,8.630496E4,1.9123992E4,3.332982E4,6.5830554E2,1.3902088E5,7.883783E3,1.0551228E5,9.355576E3,8.374238E4,2.562578E3,9.533571E3,9.590421E3,1.679889E4,1.653093E4,1.1741257E2,5.40893E2,4.3521066E4,9.549981E4,7.3387983E3,5.4498517E2,3.9395938E4,6.611634E4,9.057517E3,2.9805963E2,8.357095E4,1.7142758E2,2.5192314E3,4.3346615E1,9.013103E3,5.204689E2,9.536357E3,5.406307E1,1.66495E4,1.4939189E2,1.3224991E4,3.3059387E3,9.457479E1,2.2837774E1,3.8183908E2,1.5905391E2,1.322136E4,3.0299705E4,8.265177E4,1.284804E4,7.2268013E3,1.1199717E2,7.6471985E1,4.685132E2,1.389599E4,2.5499947E4,6.3328176E4,2.7881663E3,3.085643E3,5.971873E3,2.2013742E2,7.792221E1],"tree_param":{"num_deleted":"0","num_feature":"175","num_nodes":"63","size_leaf_vector":"1"}},{"base_weights":[-7.2385994E-4,5.0149244E-1,-2.6675755E-1,7.5655615E-1,-2.7275336E-1,-3.9636302E-1,2.2327098E-1,9.8503035E-1,-2.595031E-1,-3.430005E-1,1.8274777E-1,-2.432674E-1,-4.8375946E-1,-1.4395803E-1,3.2485315E-1,1.0291138E0,-4.410521E-1,-7.000004E-2,-4.4833106E-1,-5.524565E-1,-2.4895667E-1,3.0171368E-1,-1.4018297E-1,-2.379138E-2,-3.7539804E-1,-5.088917E-1,-3.0015124E-2,-7.949379E-2,-3.4562773E-1,5.6709766E-1,2.211803E-1,5.1659554E-2,-4.3277543E-2,-2.7322445E-2,1.39524285E-2,-5.477493E-3,3.0850524E-2,-3.732834E-2,-1.2958701E-2,-2.1632308E-2,-4.717124E-2,-1.5199766E-2,1.0591278E-2,-3.195341E-3,1.989122E-2,-2.589083E-3,-9.628268E-2,1.7552115E-2,-3.2395627E-2,-3.428068E-2,-1.6622465E-2,-2.6967177E-2,-5.1768166E-3,-3.4029916E-2,6.675776E-3,2.1439267E-2,-9.839522E-3,-2.7997473E-2,-4.6579196E-4,2.9604888E-2,-3.497383E-2,2.4723036E-2,5.3394856E-3],"categories":[],"categories_nodes":[],"categories_segments":[],"categories_sizes":[],"default_left":[0,0,0,0,0,0,0,0,0,0,0,0,0,0,0,0,0,0,0,0,0,0,0,0,0,0,0,0,0,0,0,0,0,0,0,0,0,0,0,0,0,0,0,0,0,0,0,0,0,0,0,0,0,0,0,0,0,0,0,0,0,0,0],"id":14,"left_children":[1,3,5,7,9,11,13,15,17,19,21,23,25,27,29,31,33,35,37,39,41,43,45,47,49,51,53,55,57,59,61,-1,-1,-1,-1,-1,-1,-1,-1,-1,-1,-1,-1,-1,-1,-1,-1,-1,-1,-1,-1,-1,-1,-1,-1,-1,-1,-1,-1,-1,-1,-1,-1],"loss_changes":[5.3263066E4,2.7262371E4,1.6551373E4,2.4106152E4,1.0946816E3,2.7574785E3,2.0335022E3,5.3301094E3,6.821472E2,5.836902E2,1.7566861E2,2.172038E3,1.4961367E3,1.535349E2,1.0722363E3,6.361875E2,1.9314014E2,2.5863385E2,5.3848975E2,4.297522E2,5.1886194E2,1.17431274E2,1.9426251E2,6.585123E3,6.226763E2,1.5344512E3,7.3276196E2,5.338081E2,2.0620349E2,4.0561133E2,9.3476416E2,0E0,0E0,0E0,0E0,0E0,0E0,0E0,0E0,0E0,0E0,0E0,0E0,0E0,0E0,0E0,0E0,0E0,0E0,0E0,0E0,0E0,0E0,0E0,0E0,0E0,0E0,0E0,0E0,0E0,0E0,0E0,0E0],"parents":[2147483647,0,0,1,1,2,2,3,3,4,4,5,5,6,6,7,7,8,8,9,9,10,10,11,11,12,12,13,13,14,14,15,15,16,16,17,17,18,18,19,19,20,20,21,21,22,22,23,23,24,24,25,25,26,26,27,27,28,28,29,29,30,30],"right_children":[2,4,6,8,10,12,14,16,18,20,22,24,26,28,30,32,34,36,38,40,42,44,46,48,50,52,54,56,58,60,62,-1,-1,-1,-1,-1,-1,-1,-1,-1,-1,-1,-1,-1,-1,-1,-1,-1,-1,-1,-1,-1,-1,-1,-1,-1,-1,-1,-1,-1,-1,-1,-1],"split_conditions":[1E0,1E0,1E0,1E0,1E0,1E0,1E0,1E0,1E0,1E0,1E0,1E0,1E0,1E0,2.017E3,1E0,1.2E1,1E0,1E0,1E0,1E0,1E0,1.2E1,1E0,1E0,1E0,1E0,1E0,2.021E3,1E0,4E0,5.1659554E-2,-4.3277543E-2,-2.7322445E-2,1.39524285E-2,-5.477493E-3,3.0850524E-2,-3.732834E-2,-1.2958701E-2,-2.1632308E-2,-4.717124E-2,-1.5199766E-2,1.0591278E-2,-3.195341E-3,1.989122E-2,-2.589083E-3,-9.628268E-2,1.7552115E-2,-3.2395627E-2,-3.428068E-2,-1.6622465E-2,-2.6967177E-2,-5.1768166E-3,-3.4029916E-2,6.675776E-3,2.1439267E-2,-9.839522E-3,-2.7997473E-2,-4.6579196E-4,2.9604888E-2,-3.497383E-2,2.4723036E-2,5.3394856E-3],"split_indices":[167,149,19,148,19,149,152,150,174,152,174,148,90,148,0,151,1,114,152,169,10,152,1,150,156,10,152,149,0,150,1,0,0,0,0,0,0,0,0,0,0,0,0,0,0,0,0,0,0,0,0,0,0,0,0,0,0,0,0,0,0,0,0],"split_type":[0,0,0,0,0,0,0,0,0,0,0,0,0,0,0,0,0,0,0,0,0,0,0,0,0,0,0,0,0,0,0,0,0,0,0,0,0,0,0,0,0,0,0,0,0,0,0,0,0,0,0,0,0,0,0,0,0,0,0,0,0,0,0],"sum_hessian":[3.9865438E5,1.3804786E5,2.6060653E5,1.0383951E5,3.4208348E4,2.0609703E5,5.45095E4,8.477644E4,1.9063064E4,2.963786E4,4.570489E3,7.489842E4,1.3119861E5,1.1811049E4,4.2698453E4,8.2234664E4,2.541781E3,9.515208E3,9.547855E3,9.182211E3,2.0455648E4,3.3400854E3,1.2304034E3,2.8146602E4,4.675182E4,1.2431297E5,6.8856357E3,8.951177E3,2.8598723E3,1.2795563E4,2.9902889E4,8.205852E4,1.761364E2,2.2174653E3,3.243158E2,8.998049E3,5.171592E2,3.704378E3,5.843478E3,7.0300054E3,2.1522053E3,1.8273312E4,2.182336E3,6.953183E2,2.6447673E3,1.1733387E3,5.706475E1,1.7585543E4,1.056106E4,5.683728E3,4.1068094E4,1.1562636E5,8.686611E3,1.3824791E3,5.5031567E3,1.6778646E3,7.273312E3,1.7463253E3,1.113547E3,1.254841E4,2.4715276E2,8.822504E3,2.1080385E4],"tree_param":{"num_deleted":"0","num_feature":"175","num_nodes":"63","size_leaf_vector":"1"}},{"base_weights":[-6.935837E-4,4.8171768E-1,-2.5420418E-1,7.283585E-1,-2.540513E-1,-3.771653E-1,2.1003295E-1,9.526354E-1,-2.5145328E-1,-3.0370897E-1,8.56902E-2,-2.2358438E-1,-4.6540007E-1,-1.5493949E-1,3.1058544E-1,9.957715E-1,-4.5086518E-1,-8.26963E-2,-4.1849133E-1,-4.7155187E-1,-2.2766559E-1,1.6653802E-1,-2.8869495E-1,-1.9636452E-3,-3.5805935E-1,-4.9906427E-1,-3.9370317E-2,-9.008454E-2,-3.5968202E-1,3.960348E-1,6.446246E-2,4.9980845E-2,-3.9762508E-2,-5.5503745E-2,-1.2970631E-2,-6.4733983E-3,3.339179E-2,-2.2980487E-2,3.272452E-3,-3.404138E-2,-1.5919635E-2,-1.2046902E-2,4.2233005E-2,6.172502E-3,4.8782263E-2,-4.859265E-4,-4.3225512E-2,1.7112076E-2,-2.9088033E-2,-1.863696E-2,1.8338308E-2,-3.1035637E-2,-2.02756E-2,-1.996463E-2,3.27728E-3,2.2341928E-2,-1.1093992E-2,-2.9525546E-2,-2.601741E-4,2.1020861E-2,-1.7263368E-2,1.07298335E-2,-2.8505772E-2],"categories":[],"categories_nodes":[],"categories_segments":[],"categories_sizes":[],"default_left":[0,0,0,0,0,0,0,0,0,0,0,0,0,0,0,0,0,0,0,0,0,0,0,0,0,0,0,0,0,0,0,0,0,0,0,0,0,0,0,0,0,0,0,0,0,0,0,0,0,0,0,0,0,0,0,0,0,0,0,0,0,0,0],"id":15,"left_children":[1,3,5,7,9,11,13,15,17,19,21,23,25,27,29,31,33,35,37,39,41,43,45,47,49,51,53,55,57,59,61,-1,-1,-1,-1,-1,-1,-1,-1,-1,-1,-1,-1,-1,-1,-1,-1,-1,-1,-1,-1,-1,-1,-1,-1,-1,-1,-1,-1,-1,-1,-1,-1],"loss_changes":[4.8370363E4,2.4725203E4,1.479999E4,2.2423945E4,5.7712036E2,2.7775898E3,1.9925217E3,5.0275625E3,5.357639E2,3.8081226E2,1.3210701E2,2.22908E3,1.8670703E3,1.556951E2,8.951763E2,5.556328E2,3.1228543E2,3.320381E2,1.9010657E2,2.9801978E2,2.9255347E2,1.2499322E2,1.2452078E2,5.6373228E3,4.9544238E2,1.3728066E3,3.6007047E2,6.3045154E2,2.3081516E2,5.712339E2,1.0453301E3,0E0,0E0,0E0,0E0,0E0,0E0,0E0,0E0,0E0,0E0,0E0,0E0,0E0,0E0,0E0,0E0,0E0,0E0,0E0,0E0,0E0,0E0,0E0,0E0,0E0,0E0,0E0,0E0,0E0,0E0,0E0,0E0],"parents":[2147483647,0,0,1,1,2,2,3,3,4,4,5,5,6,6,7,7,8,8,9,9,10,10,11,11,12,12,13,13,14,14,15,15,16,16,17,17,18,18,19,19,20,20,21,21,22,22,23,23,24,24,25,25,26,26,27,27,28,28,29,29,30,30],"right_children":[2,4,6,8,10,12,14,16,18,20,22,24,26,28,30,32,34,36,38,40,42,44,46,48,50,52,54,56,58,60,62,-1,-1,-1,-1,-1,-1,-1,-1,-1,-1,-1,-1,-1,-1,-1,-1,-1,-1,-1,-1,-1,-1,-1,-1,-1,-1,-1,-1,-1,-1,-1,-1],"split_conditions":[1E0,1E0,1E0,1E0,1E0,1E0,1E0,1E0,1E0,1E0,1E0,1E0,1E0,1E0,1E0,1E0,1E0,1E0,1E0,1E0,1E0,1E0,8E0,1E0,1E0,1E0,1E0,1E0,2.021E3,1E0,1E0,4.9980845E-2,-3.9762508E-2,-5.5503745E-2,-1.2970631E-2,-6.4733983E-3,3.339179E-2,-2.2980487E-2,3.272452E-3,-3.404138E-2,-1.5919635E-2,-1.2046902E-2,4.2233005E-2,6.172502E-3,4.8782263E-2,-4.859265E-4,-4.3225512E-2,1.7112076E-2,-2.9088033E-2,-1.863696E-2,1.8338308E-2,-3.1035637E-2,-2.02756E-2,-1.996463E-2,3.27728E-3,2.2341928E-2,-1.1093992E-2,-2.9525546E-2,-2.601741E-4,2.1020861E-2,-1.7263368E-2,1.07298335E-2,-2.8505772E-2],"split_indices":[167,149,19,148,19,149,152,150,174,152,169,148,114,148,174,151,152,114,114,147,6,160,1,150,101,147,152,149,0,150,148,0,0,0,0,0,0,0,0,0,0,0,0,0,0,0,0,0,0,0,0,0,0,0,0,0,0,0,0,0,0,0,0],"split_type":[0,0,0,0,0,0,0,0,0,0,0,0,0,0,0,0,0,0,0,0,0,0,0,0,0,0,0,0,0,0,0,0,0,0,0,0,0,0,0,0,0,0,0,0,0,0,0,0,0,0,0,0,0,0,0,0,0,0,0,0,0,0,0],"sum_hessian":[3.955156E5,1.3624703E5,2.5926856E5,1.0204127E5,3.4205758E4,2.049771E5,5.4291477E4,8.3034805E4,1.900647E4,2.98438E4,4.3619565E3,7.479426E4,1.30182836E5,1.1726735E4,4.256474E4,8.055914E4,2.4756648E3,9.455333E3,9.551139E3,9.303633E3,2.0540166E4,3.5877446E3,7.742119E2,2.824547E4,4.6548785E4,1.20649164E5,9.533674E3,8.90682E3,2.8199153E3,3.1594945E4,1.0969793E4,8.0386984E4,1.7215419E2,5.561006E2,1.9195642E3,8.90144E3,5.5389246E2,8.803217E3,7.47922E2,3.9301104E3,5.373523E3,2.028981E4,2.5035703E2,3.4074382E3,1.8030621E2,5.222191E2,2.5199277E2,1.772385E4,1.052162E4,4.5625227E4,9.2356055E2,5.2446254E4,6.820291E4,2.1511565E3,7.382517E3,1.754942E3,7.1518784E3,1.7074163E3,1.1124989E3,3.0589258E4,1.00568915E3,8.871544E3,2.0982488E3],"tree_param":{"num_deleted":"0","num_feature":"175","num_nodes":"63","size_leaf_vector":"1"}},{"base_weights":[-1.9473168E-3,4.6396077E-1,-2.444202E-1,7.0623523E-1,-2.495181E-1,-3.597867E-1,1.9289495E-1,9.2468894E-1,-2.2473413E-1,-3.144928E-1,1.6842891E-1,-2.1808381E-1,-4.4117048E-1,-1.4330608E-1,2.8565112E-1,9.481362E-1,-4.0304554E-3,-4.0614775E-1,-1.2358798E-1,-5.046878E-1,-2.299535E-1,2.4469325E-1,-9.2465594E-2,-8.082454E-3,-3.4523836E-1,-5.5541056E-1,-3.5303527E-1,-1.6970237E-1,6.31029E-1,3.7622264E-1,2.0598458E-2,4.8433226E-2,3.385466E-2,-1.3983177E-2,1.000868E-2,-1.9026339E-2,-9.412754E-2,-8.959131E-3,7.33872E-3,-2.5965048E-2,5.988715E-2,-1.2235285E-2,4.232515E-2,1.2796931E-2,-9.227073E-2,3.8441613E-3,-5.3975638E-2,-1.3478E-3,4.3706045E-2,-3.1154677E-2,-1.5319707E-2,-2.8575823E-2,5.6950003E-3,-2.8705364E-2,-1.3414251E-2,-5.276875E-3,-1.8752262E-2,3.9323993E-2,-8.939319E-2,2.3089811E-2,8.592287E-3,9.682327E-3,-3.7695475E-2],"categories":[],"categories_nodes":[],"categories_segments":[],"categories_sizes":[],"default_left":[0,0,0,0,0,0,0,0,0,0,0,0,0,0,0,0,0,0,0,0,0,0,0,0,0,0,0,0,0,0,0,0,0,0,0,0,0,0,0,0,0,0,0,0,0,0,0,0,0,0,0,0,0,0,0,0,0,0,0,0,0,0,0],"id":16,"left_children":[1,3,5,7,9,11,13,15,17,19,21,23,25,27,29,31,33,35,37,39,41,43,45,47,49,51,53,55,57,59,61,-1,-1,-1,-1,-1,-1,-1,-1,-1,-1,-1,-1,-1,-1,-1,-1,-1,-1,-1,-1,-1,-1,-1,-1,-1,-1,-1,-1,-1,-1,-1,-1],"loss_changes":[4.4336184E4,2.3221125E4,1.3022815E4,2.039514E4,9.248108E2,2.3553066E3,1.6803147E3,1.7687422E3,3.4968927E2,4.7376538E2,9.1198135E1,1.989654E3,1.3060273E3,2.3826425E2,1.01378784E3,4.4014062E2,1.1269153E2,2.573534E2,1.8398285E2,2.262185E2,3.242412E2,8.382091E1,1.7346451E2,4.6793466E2,5.007202E2,6.090996E2,1.371998E3,1.484313E2,1.4591585E2,5.503965E2,1.4418044E3,0E0,0E0,0E0,0E0,0E0,0E0,0E0,0E0,0E0,0E0,0E0,0E0,0E0,0E0,0E0,0E0,0E0,0E0,0E0,0E0,0E0,0E0,0E0,0E0,0E0,0E0,0E0,0E0,0E0,0E0,0E0,0E0],"parents":[2147483647,0,0,1,1,2,2,3,3,4,4,5,5,6,6,7,7,8,8,9,9,10,10,11,11,12,12,13,13,14,14,15,15,16,16,17,17,18,18,19,19,20,20,21,21,22,22,23,23,24,24,25,25,26,26,27,27,28,28,29,29,30,30],"right_children":[2,4,6,8,10,12,14,16,18,20,22,24,26,28,30,32,34,36,38,40,42,44,46,48,50,52,54,56,58,60,62,-1,-1,-1,-1,-1,-1,-1,-1,-1,-1,-1,-1,-1,-1,-1,-1,-1,-1,-1,-1,-1,-1,-1,-1,-1,-1,-1,-1,-1,-1,-1,-1],"split_conditions":[1E0,1E0,1E0,1E0,1E0,1E0,1E0,1E0,1E0,1E0,1E0,1E0,1E0,1E0,1E0,1E0,2.019E3,1E0,1E0,1E0,1E0,1E0,1.1E1,1E0,1E0,1E0,1E0,1E0,2.023E3,2.021E3,1E0,4.8433226E-2,3.385466E-2,-1.3983177E-2,1.000868E-2,-1.9026339E-2,-9.412754E-2,-8.959131E-3,7.33872E-3,-2.5965048E-2,5.988715E-2,-1.2235285E-2,4.232515E-2,1.2796931E-2,-9.227073E-2,3.8441613E-3,-5.3975638E-2,-1.3478E-3,4.3706045E-2,-3.1154677E-2,-1.5319707E-2,-2.8575823E-2,5.6950003E-3,-2.8705364E-2,-1.3414251E-2,-5.276875E-3,-1.8752262E-2,3.9323993E-2,-8.939319E-2,2.3089811E-2,8.592287E-3,9.682327E-3,-3.7695475E-2],"split_indices":[167,149,19,148,19,149,152,168,152,152,168,148,147,160,174,169,0,90,19,47,6,157,1,6,156,32,152,148,0,0,148,0,0,0,0,0,0,0,0,0,0,0,0,0,0,0,0,0,0,0,0,0,0,0,0,0,0,0,0,0,0,0,0],"split_type":[0,0,0,0,0,0,0,0,0,0,0,0,0,0,0,0,0,0,0,0,0,0,0,0,0,0,0,0,0,0,0,0,0,0,0,0,0,0,0,0,0,0,0,0,0,0,0,0,0,0,0,0,0,0,0,0,0,0,0,0,0,0,0],"sum_hessian":[3.9245753E5,1.3433462E5,2.5812292E5,1.0028207E5,3.4052555E4,2.0424261E5,5.3880312E4,8.122296E4,1.9059111E4,2.9471168E4,4.581387E3,7.451066E4,1.2973195E5,1.1650769E4,4.2229543E4,7.9222805E4,2.0001508E3,6.821391E3,1.223772E4,9.067133E3,2.0404035E4,3.545139E3,1.0362482E3,2.8101256E4,4.6409402E4,5.649645E4,7.32355E4,1.1267453E4,3.833152E2,3.1474074E4,1.0755471E4,7.364268E4,5.580128E3,8.5104596E2,1.1491049E3,6.7062705E3,1.15120415E2,1.0150756E4,2.0869636E3,8.990654E3,7.647819E1,2.0128953E4,2.7508282E2,3.52704E3,1.8098925E1,8.852815E2,1.5096666E2,2.751361E4,5.87647E2,5.6904214E3,4.071898E4,5.516904E4,1.3274069E3,2.0293613E4,5.294189E4,8.586032E3,2.681421E3,3.6080295E2,2.251224E1,2.218419E4,9.289885E3,8.791858E3,1.9636123E3],"tree_param":{"num_deleted":"0","num_feature":"175","num_nodes":"63","size_leaf_vector":"1"}},{"base_weights":[1.4514846E-3,4.368645E-1,-2.2019795E-1,6.734462E-1,-2.4687383E-1,-3.3287472E-1,2.032596E-1,8.882902E-1,-2.0991448E-1,-3.1066367E-1,1.6150577E-1,-2.0167728E-1,-4.082113E-1,2.734063E-1,-7.308433E-2,9.3175364E-1,-4.655783E-1,-3.674113E-2,-3.846551E-1,-3.754813E-1,-4.5216072E-2,1.7064668E-1,-9.011852E-2,2.33912E-2,-3.4086183E-1,-5.271539E-1,-3.1743205E-1,6.5154815E-1,1.9617037E-1,8.9630045E-2,-4.4981077E-1,4.6784427E-2,-3.9653953E-2,-2.644215E-2,3.8373124E-2,-2.443205E-3,7.845869E-2,-2.0501655E-2,3.0565077E-2,-1.7793735E-2,-5.500834E-2,-1.1297312E-3,-8.331219E-2,7.24413E-3,3.8119923E-2,1.8427664E-2,-2.9044991E-2,-1.564076E-2,-3.2681677E-2,-2.6503263E-2,1.2000352E-1,-1.7603837E-2,1.257173E-2,4.697527E-2,-1.5586905E-2,2.0151623E-2,5.682215E-3,-3.591907E-3,1.3091098E-2,-6.2635676E-3,-3.240411E-2],"categories":[],"categories_nodes":[],"categories_segments":[],"categories_sizes":[],"default_left":[0,0,0,0,0,0,0,0,0,0,0,0,0,0,0,0,0,0,0,0,0,0,0,0,0,0,0,0,0,0,0,0,0,0,0,0,0,0,0,0,0,0,0,0,0,0,0,0,0,0,0,0,0,0,0,0,0,0,0,0,0],"id":17,"left_children":[1,3,5,7,9,11,13,15,17,19,21,23,25,27,29,31,33,35,37,39,41,43,-1,45,47,49,51,53,55,57,59,-1,-1,-1,-1,-1,-1,-1,-1,-1,-1,-1,-1,-1,-1,-1,-1,-1,-1,-1,-1,-1,-1,-1,-1,-1,-1,-1,-1,-1,-1],"loss_changes":[3.7632E4,2.1277652E4,1.232908E4,1.8546715E4,8.8092993E2,2.0171328E3,1.0527258E3,4.625918E3,5.7852795E2,5.03187E2,8.232774E1,2.332137E3,1.3996641E3,1.2648545E3,6.7402295E2,5.1765625E2,1.9118848E2,1.8704298E2,2.4077649E2,3.336023E2,2.1048528E2,6.9238815E1,0E0,5.933816E3,4.0331787E2,4.794912E2,1.4492188E3,2.0378777E3,6.1397424E2,2.1353256E2,2.1333545E2,0E0,0E0,0E0,0E0,0E0,0E0,0E0,0E0,0E0,0E0,0E0,0E0,0E0,0E0,0E0,0E0,0E0,0E0,0E0,0E0,0E0,0E0,0E0,0E0,0E0,0E0,0E0,0E0,0E0,0E0],"parents":[2147483647,0,0,1,1,2,2,3,3,4,4,5,5,6,6,7,7,8,8,9,9,10,10,11,11,12,12,13,13,14,14,15,15,16,16,17,17,18,18,19,19,20,20,21,21,23,23,24,24,25,25,26,26,27,27,28,28,29,29,30,30],"right_children":[2,4,6,8,10,12,14,16,18,20,22,24,26,28,30,32,34,36,38,40,42,44,-1,46,48,50,52,54,56,58,60,-1,-1,-1,-1,-1,-1,-1,-1,-1,-1,-1,-1,-1,-1,-1,-1,-1,-1,-1,-1,-1,-1,-1,-1,-1,-1,-1,-1,-1,-1],"split_conditions":[1E0,1E0,1E0,1E0,1E0,1E0,1E0,1E0,1E0,1E0,1E0,1E0,1E0,1E0,1E0,1E0,1E0,1E0,1E0,1E0,1E0,1E0,-9.011852E-2,1E0,1E0,1E0,1E0,1E0,4E0,1E0,5E0,4.6784427E-2,-3.9653953E-2,-2.644215E-2,3.8373124E-2,-2.443205E-3,7.845869E-2,-2.0501655E-2,3.0565077E-2,-1.7793735E-2,-5.500834E-2,-1.1297312E-3,-8.331219E-2,7.24413E-3,3.8119923E-2,1.8427664E-2,-2.9044991E-2,-1.564076E-2,-3.2681677E-2,-2.6503263E-2,1.2000352E-1,-1.7603837E-2,1.257173E-2,4.697527E-2,-1.5586905E-2,2.0151623E-2,5.682215E-3,-3.591907E-3,1.3091098E-2,-6.2635676E-3,-3.240411E-2],"split_indices":[167,149,19,148,19,149,148,150,174,166,157,148,147,149,174,151,24,146,84,24,34,160,0,150,158,146,90,150,1,147,1,0,0,0,0,0,0,0,0,0,0,0,0,0,0,0,0,0,0,0,0,0,0,0,0,0,0,0,0,0,0],"split_type":[0,0,0,0,0,0,0,0,0,0,0,0,0,0,0,0,0,0,0,0,0,0,0,0,0,0,0,0,0,0,0,0,0,0,0,0,0,0,0,0,0,0,0,0,0,0,0,0,0,0,0,0,0,0,0,0,0,0,0,0,0],"sum_hessian":[3.8993034E5,1.3153639E5,2.5839395E5,9.7723055E4,3.381334E4,2.040887E5,5.4305246E4,7.860529E4,1.9117768E4,2.924538E4,4.5679585E3,7.444596E4,1.2964274E5,4.3311207E4,1.0994037E4,7.616061E4,2.4446807E3,9.602552E3,9.515215E3,2.350537E4,5.7400127E3,4.547704E3,2.0254295E1,2.8446828E4,4.5999133E4,5.611448E4,7.3528266E4,7.3446875E3,3.596652E4,7.67838E3,3.3156572E3,7.598771E4,1.7289372E2,2.325914E3,1.187666E2,9.531568E3,7.098375E1,9.279356E3,2.3585913E2,2.2887627E4,6.177423E2,5.662013E3,7.799947E1,4.359157E3,1.8854704E2,1.8105578E4,1.0341248E4,4.2215605E4,3.783527E3,5.6059543E4,5.4935776E1,6.930772E4,4.220545E3,5.6544233E3,1.6902642E3,1.025562E4,2.57109E4,3.962881E3,3.7154988E3,1.2580529E3,2.0576042E3],"tree_param":{"num_deleted":"0","num_feature":"175","num_nodes":"61","size_leaf_vector":"1"}},{"base_weights":[3.5572234E-3,4.3368468E-1,-2.1693265E-1,6.624435E-1,-2.2659585E-1,-3.2607743E-1,1.910427E-1,8.729099E-1,-2.0710006E-1,-2.888789E-1,1.6647136E-1,-1.9035174E-1,-4.0452108E-1,-9.34988E-2,2.7147934E-1,9.1649795E-1,-4.9963292E-1,-4.340759E-2,-3.733638E-1,-4.779068E-1,-2.0554426E-1,-2.2291681E-1,2.7679667E-1,6.167745E-4,-3.0609378E-1,-4.265038E-1,-8.928599E-2,-6.681844E-2,-1.0523974E0,4.8503703E-1,1.8193692E-1,4.6017792E-2,-3.8083863E-2,-2.9384354E-2,1.3586961E-2,7.101142E-5,-2.6214126E-2,-3.0102877E-2,-1.1300815E-2,-2.9030085E-2,-1.2456556E-2,-1.3046378E-2,1.2456862E-2,-3.406424E-3,-9.004951E-2,-8.163518E-3,2.003235E-2,1.5424228E-2,-2.5849316E-2,-1.4048359E-2,-2.9227197E-2,-2.2403177E-2,-2.729093E-3,-3.9435126E-2,4.917792E-3,-6.319227E-3,1.0282674E-2,2.3874747E-2,-7.083129E-2,2.5378365E-2,-3.2235786E-2,1.3700468E-2,-3.3421633E-3],"categories":[],"categories_nodes":[],"categories_segments":[],"categories_sizes":[],"default_left":[0,0,0,0,0,0,0,0,0,0,0,0,0,0,0,0,0,0,0,0,0,0,0,0,0,0,0,0,0,0,0,0,0,0,0,0,0,0,0,0,0,0,0,0,0,0,0,0,0,0,0,0,0,0,0,0,0,0,0,0,0,0,0],"id":18,"left_children":[1,3,5,7,9,11,13,15,17,19,21,23,25,27,29,31,33,35,37,39,41,43,45,47,49,51,53,55,57,59,61,-1,-1,-1,-1,-1,-1,-1,-1,-1,-1,-1,-1,-1,-1,-1,-1,-1,-1,-1,-1,-1,-1,-1,-1,-1,-1,-1,-1,-1,-1,-1,-1],"loss_changes":[3.6783207E4,1.9853475E4,1.1417596E4,1.7865441E4,8.280475E2,2.1536875E3,1.238683E3,4.702578E3,5.1775146E2,4.598098E2,1.9882445E2,1.6377329E3,8.883379E2,3.050916E2,8.067334E2,4.9388672E2,1.6451886E2,2.0667247E2,3.1789697E2,2.0971082E2,5.103609E2,2.4952757E2,1.9658618E2,4.455995E3,3.2261426E2,9.609219E2,1.0970178E3,1.8839444E2,1.805676E2,3.175796E2,6.8099335E2,0E0,0E0,0E0,0E0,0E0,0E0,0E0,0E0,0E0,0E0,0E0,0E0,0E0,0E0,0E0,0E0,0E0,0E0,0E0,0E0,0E0,0E0,0E0,0E0,0E0,0E0,0E0,0E0,0E0,0E0,0E0,0E0],"parents":[2147483647,0,0,1,1,2,2,3,3,4,4,5,5,6,6,7,7,8,8,9,9,10,10,11,11,12,12,13,13,14,14,15,15,16,16,17,17,18,18,19,19,20,20,21,21,22,22,23,23,24,24,25,25,26,26,27,27,28,28,29,29,30,30],"right_children":[2,4,6,8,10,12,14,16,18,20,22,24,26,28,30,32,34,36,38,40,42,44,46,48,50,52,54,56,58,60,62,-1,-1,-1,-1,-1,-1,-1,-1,-1,-1,-1,-1,-1,-1,-1,-1,-1,-1,-1,-1,-1,-1,-1,-1,-1,-1,-1,-1,-1,-1,-1,-1],"split_conditions":[1E0,1E0,1E0,1E0,1E0,1E0,1E0,1E0,1E0,1E0,1E0,1E0,1E0,1E0,2.017E3,1E0,1E0,1E0,1E0,1E0,1E0,1E0,1E0,1E0,1E0,1E0,1E0,1E0,2E0,1E0,1E0,4.6017792E-2,-3.8083863E-2,-2.9384354E-2,1.3586961E-2,7.101142E-5,-2.6214126E-2,-3.0102877E-2,-1.1300815E-2,-2.9030085E-2,-1.2456556E-2,-1.3046378E-2,1.2456862E-2,-3.406424E-3,-9.004951E-2,-8.163518E-3,2.003235E-2,1.5424228E-2,-2.5849316E-2,-1.4048359E-2,-2.9227197E-2,-2.2403177E-2,-2.729093E-3,-3.9435126E-2,4.917792E-3,-6.319227E-3,1.0282674E-2,2.3874747E-2,-7.083129E-2,2.5378365E-2,-3.2235786E-2,1.3700468E-2,-3.3421633E-3],"split_indices":[167,149,19,148,19,149,152,150,174,152,152,148,10,150,0,151,19,162,152,168,10,162,156,150,158,90,152,163,1,150,174,0,0,0,0,0,0,0,0,0,0,0,0,0,0,0,0,0,0,0,0,0,0,0,0,0,0,0,0,0,0,0,0],"split_type":[0,0,0,0,0,0,0,0,0,0,0,0,0,0,0,0,0,0,0,0,0,0,0,0,0,0,0,0,0,0,0,0,0,0,0,0,0,0,0,0,0,0,0,0,0,0,0,0,0,0,0,0,0,0,0,0,0,0,0,0,0,0,0],"sum_hessian":[3.8784797E5,1.3143877E5,2.5640922E5,9.7618234E4,3.3820527E4,2.0229095E5,5.411827E4,7.859493E4,1.9023305E4,2.9194768E4,4.625761E3,7.409421E4,1.2819674E5,1.1926954E4,4.2191316E4,7.6176125E4,2.4188042E3,9.586409E3,9.436896E3,8.931261E3,2.0263508E4,1.02103705E3,3.6047244E3,2.7960988E4,4.6133223E4,1.19839445E5,8.35729E3,1.1605124E4,3.2183087E2,1.2462934E4,2.972838E4,7.600186E4,1.742667E2,2.1711948E3,2.4760948E2,8.769867E3,8.1654193E2,3.6965312E3,5.7403647E3,6.163152E3,2.7681084E3,1.8063658E4,2.1998499E3,9.3078265E2,9.025441E1,7.916175E2,2.813107E3,1.7532906E4,1.0428083E4,4.2316688E4,3.8165356E3,1.1327299E5,6.5664585E3,1.7671624E3,6.5901274E3,9.523657E3,2.0814663E3,6.1826424E1,2.6000446E2,1.221979E4,2.4314435E2,2.1697963E4,8.030419E3],"tree_param":{"num_deleted":"0","num_feature":"175","num_nodes":"63","size_leaf_vector":"1"}},{"base_weights":[4.5798756E-3,4.1618255E-1,-2.0309398E-1,6.3997257E-1,-2.1875116E-1,-3.06486E-1,1.8287386E-1,6.8096185E-1,-1.7312038E-1,-2.7747536E-1,1.5726559E-1,-3.3753538E-1,9.060725E-2,-1.2110139E-1,2.6714087E-1,6.989356E-1,-3.6600405E-1,-2.7510408E-1,4.7232762E-1,-2.2992706E-1,-5.356192E-1,1.0237147E-1,4.7783625E-1,-2.1249558E-1,-4.1036853E-1,-1.217E-1,1.6392107E-1,-9.361765E-2,-1.1788515E0,4.8211432E-1,1.7599668E-1,3.67144E-2,1.7252749E-2,-5.8890056E-2,-7.0903026E-3,-1.4790651E-2,7.714571E-2,3.2908425E-2,-9.743053E-2,-8.060456E-3,-2.0753123E-2,-2.8225575E-2,5.287346E-2,4.369822E-3,7.5294234E-2,3.4769498E-2,-5.341292E-2,-8.02737E-3,-2.6673371E-2,-2.1973772E-2,-1.6393121E-3,-1.532528E-2,1.387501E-2,9.971816E-3,-3.499038E-2,-7.7087246E-3,9.089673E-3,-2.4415689E-2,-8.273981E-2,1.37504265E-2,3.1286795E-2,2.1697117E-2,3.3890966E-3],"categories":[],"categories_nodes":[],"categories_segments":[],"categories_sizes":[],"default_left":[0,0,0,0,0,0,0,0,0,0,0,0,0,0,0,0,0,0,0,0,0,0,0,0,0,0,0,0,0,0,0,0,0,0,0,0,0,0,0,0,0,0,0,0,0,0,0,0,0,0,0,0,0,0,0,0,0,0,0,0,0,0,0],"id":19,"left_children":[1,3,5,7,9,11,13,15,17,19,21,23,25,27,29,31,33,35,37,39,41,43,45,47,49,51,53,55,57,59,61,-1,-1,-1,-1,-1,-1,-1,-1,-1,-1,-1,-1,-1,-1,-1,-1,-1,-1,-1,-1,-1,-1,-1,-1,-1,-1,-1,-1,-1,-1,-1,-1],"loss_changes":[3.2946516E4,1.836619E4,1.0223123E4,3.185289E3,7.43864E2,2.49125E3,1.3864772E3,1.7123867E3,3.0209784E2,3.574973E2,8.003415E1,1.7065801E3,2.2810925E2,3.4143292E2,8.302615E2,1.118793E3,2.794376E2,1.4962729E2,2.8306134E2,3.129685E2,2.0915417E2,8.155899E1,2.2444606E2,1.1500901E3,1.3014609E3,2.7762274E2,3.3428683E2,1.9102771E2,9.695108E1,3.751272E2,8.307383E2,0E0,0E0,0E0,0E0,0E0,0E0,0E0,0E0,0E0,0E0,0E0,0E0,0E0,0E0,0E0,0E0,0E0,0E0,0E0,0E0,0E0,0E0,0E0,0E0,0E0,0E0,0E0,0E0,0E0,0E0,0E0,0E0],"parents":[2147483647,0,0,1,1,2,2,3,3,4,4,5,5,6,6,7,7,8,8,9,9,10,10,11,11,12,12,13,13,14,14,15,15,16,16,17,17,18,18,19,19,20,20,21,21,22,22,23,23,24,24,25,25,26,26,27,27,28,28,29,29,30,30],"right_children":[2,4,6,8,10,12,14,16,18,20,22,24,26,28,30,32,34,36,38,40,42,44,46,48,50,52,54,56,58,60,62,-1,-1,-1,-1,-1,-1,-1,-1,-1,-1,-1,-1,-1,-1,-1,-1,-1,-1,-1,-1,-1,-1,-1,-1,-1,-1,-1,-1,-1,-1,-1,-1],"split_conditions":[1E0,1E0,1E0,1E0,1E0,1E0,1E0,1E0,1E0,1.1E1,2.023E3,1E0,1E0,1E0,2.017E3,1E0,2.017E3,1E0,2.022E3,1E0,1E0,1E0,1E0,1E0,1E0,1E1,1E0,1E0,2.018E3,1E0,4E0,3.67144E-2,1.7252749E-2,-5.8890056E-2,-7.0903026E-3,-1.4790651E-2,7.714571E-2,3.2908425E-2,-9.743053E-2,-8.060456E-3,-2.0753123E-2,-2.8225575E-2,5.287346E-2,4.369822E-3,7.5294234E-2,3.4769498E-2,-5.341292E-2,-8.02737E-3,-2.6673371E-2,-2.1973772E-2,-1.6393121E-3,-1.532528E-2,1.387501E-2,9.971816E-3,-3.499038E-2,-7.7087246E-3,9.089673E-3,-2.4415689E-2,-8.273981E-2,1.37504265E-2,3.1286795E-2,2.1697117E-2,3.3890966E-3],"split_indices":[167,149,19,168,19,114,152,150,19,1,0,149,152,150,0,169,0,31,0,169,54,161,174,150,10,1,150,163,0,147,1,0,0,0,0,0,0,0,0,0,0,0,0,0,0,0,0,0,0,0,0,0,0,0,0,0,0,0,0,0,0,0,0],"split_type":[0,0,0,0,0,0,0,0,0,0,0,0,0,0,0,0,0,0,0,0,0,0,0,0,0,0,0,0,0,0,0,0,0,0,0,0,0,0,0,0,0,0,0,0,0,0,0,0,0,0,0,0,0,0,0,0,0,0,0,0,0,0,0],"sum_hessian":[3.8543153E5,1.292538E5,2.5617773E5,9.556926E4,3.3684543E4,2.0205262E5,5.412511E4,9.0982836E4,4.5864224E3,2.9134707E4,4.549835E3,1.8739969E5,1.4652934E4,1.1747624E4,4.2377484E4,8.944758E4,1.5352614E3,3.9611213E3,6.2530133E2,2.4604602E4,4.530106E3,3.8857612E3,6.6407355E2,6.89796E4,1.18420086E5,3.7609768E3,1.0891957E4,1.1451174E4,2.964497E2,1.2616295E4,2.9761191E4,8.132245E4,8.125125E3,3.3132294E2,1.2039385E3,3.9173364E3,4.378488E1,5.813989E2,4.3902378E1,1.7945514E4,6.6590864E3,4.450046E3,8.006041E1,3.8457903E3,3.9971066E1,5.826396E2,8.143401E1,5.9371957E4,9.607645E3,1.0994456E5,8.475521E3,2.570994E3,1.1899828E3,1.0462522E4,4.2943433E2,9.387508E3,2.0636663E3,1.21783165E2,1.7466653E2,5.16752E3,7.448775E3,8.794708E3,2.0966482E4],"tree_param":{"num_deleted":"0","num_feature":"175","num_nodes":"63","size_leaf_vector":"1"}},{"base_weights":[-3.416407E-3,-8.497337E-2,3.1856218E-1,5.7171476E-1,-1.12303324E-1,4.0379378E-1,-6.95566E-2,6.999921E-1,-3.4926257E-1,-6.452085E-2,-2.9581493E-1,4.248136E-1,-2.840203E-1,9.548171E-2,-4.444524E-1,4.6867058E-1,9.9858236E-1,-4.922278E-1,1.4922234E0,-4.149372E-2,-4.6914583E-1,-1.9470407E-1,-3.8616803E-1,8.9331794E-1,4.026052E-1,1.8408166E-2,-8.7706417E-1,-2.5340417E-1,1.910273E-1,-4.9787608E-1,6.500363E-1,2.4638187E-2,-8.895527E-2,5.01869E-2,-1.1715367E-1,-1.5975019E-2,-9.119104E-2,-8.0633655E-2,8.366449E-2,-3.4480144E-3,1.44666275E-2,-2.1897128E-2,-6.2041987E-2,-2.715217E-2,-6.272801E-3,-2.0119572E-2,1.5907371E-2,4.0741723E-2,5.5276174E-2,1.2957187E-2,2.2350369E-2,7.7246497E-3,-5.483333E-2,-8.842491E-2,-3.576042E-2,-7.3076184E-3,-9.362366E-2,5.776873E-3,3.7847485E-2,-1.3856527E-2,-3.1386096E-2,-4.1036673E-2,7.089337E-2],"categories":[],"categories_nodes":[],"categories_segments":[],"categories_sizes":[],"default_left":[0,0,0,0,0,0,0,0,0,0,0,0,0,0,0,0,0,0,0,0,0,0,0,0,0,0,0,0,0,0,0,0,0,0,0,0,0,0,0,0,0,0,0,0,0,0,0,0,0,0,0,0,0,0,0,0,0,0,0,0,0,0,0],"id":20,"left_children":[1,3,5,7,9,11,13,15,17,19,21,23,25,27,29,31,33,35,37,39,41,43,45,47,49,51,53,55,57,59,61,-1,-1,-1,-1,-1,-1,-1,-1,-1,-1,-1,-1,-1,-1,-1,-1,-1,-1,-1,-1,-1,-1,-1,-1,-1,-1,-1,-1,-1,-1,-1,-1],"loss_changes":[1.0022955E4,5.465828E3,2.5518618E3,1.4378137E3,2.563744E3,9.145908E2,8.59505E2,7.37272E2,3.925599E2,2.1614026E3,5.517339E2,6.3824316E2,3.3652948E2,3.2158658E2,2.4860193E2,3.2691284E2,8.266406E1,3.172443E2,6.311728E1,1.9944357E3,3.00229E2,6.875459E2,3.645918E2,4.5347412E1,3.73167E2,1.8887439E2,9.0166534E1,3.5989368E2,3.2342807E2,1.1588464E2,2.2482005E2,0E0,0E0,0E0,0E0,0E0,0E0,0E0,0E0,0E0,0E0,0E0,0E0,0E0,0E0,0E0,0E0,0E0,0E0,0E0,0E0,0E0,0E0,0E0,0E0,0E0,0E0,0E0,0E0,0E0,0E0,0E0,0E0],"parents":[2147483647,0,0,1,1,2,2,3,3,4,4,5,5,6,6,7,7,8,8,9,9,10,10,11,11,12,12,13,13,14,14,15,15,16,16,17,17,18,18,19,19,20,20,21,21,22,22,23,23,24,24,25,25,26,26,27,27,28,28,29,29,30,30],"right_children":[2,4,6,8,10,12,14,16,18,20,22,24,26,28,30,32,34,36,38,40,42,44,46,48,50,52,54,56,58,60,62,-1,-1,-1,-1,-1,-1,-1,-1,-1,-1,-1,-1,-1,-1,-1,-1,-1,-1,-1,-1,-1,-1,-1,-1,-1,-1,-1,-1,-1,-1,-1,-1],"split_conditions":[1E0,1E0,1E0,1E0,1E0,1E0,1E0,1E0,1E0,1E0,1E0,1E0,8E0,1E0,1E0,1E0,1E0,1.1E1,4E0,1E0,1E0,1E0,1E0,1E0,1E0,1E0,9E0,1E0,1.2E1,5E0,1E1,2.4638187E-2,-8.895527E-2,5.01869E-2,-1.1715367E-1,-1.5975019E-2,-9.119104E-2,-8.0633655E-2,8.366449E-2,-3.4480144E-3,1.44666275E-2,-2.1897128E-2,-6.2041987E-2,-2.715217E-2,-6.272801E-3,-2.0119572E-2,1.5907371E-2,4.0741723E-2,5.5276174E-2,1.2957187E-2,2.2350369E-2,7.7246497E-3,-5.483333E-2,-8.842491E-2,-3.576042E-2,-7.3076184E-3,-9.362366E-2,5.776873E-3,3.7847485E-2,-1.3856527E-2,-3.1386096E-2,-4.1036673E-2,7.089337E-2],"split_indices":[19,172,148,148,148,150,174,174,101,150,174,172,1,152,168,173,9,1,1,114,10,156,58,174,152,153,1,162,1,1,1,0,0,0,0,0,0,0,0,0,0,0,0,0,0,0,0,0,0,0,0,0,0,0,0,0,0,0,0,0,0,0,0],"split_type":[0,0,0,0,0,0,0,0,0,0,0,0,0,0,0,0,0,0,0,0,0,0,0,0,0,0,0,0,0,0,0,0,0,0,0,0,0,0,0,0,0,0,0,0,0,0,0,0,0,0,0,0,0,0,0,0,0,0,0,0,0,0,0],"sum_hessian":[3.8168528E5,3.0454497E5,7.7140305E4,1.2167302E4,2.923777E5,6.3250367E4,1.3889939E4,1.0679991E4,1.487311E3,2.3197716E5,6.0400516E4,6.137511E4,1.8752592E3,9.644806E3,4.2451343E3,6.01932E3,4.660671E3,1.3808411E3,1.0646999E2,2.1948728E5,1.2489875E4,2.850489E4,3.1895627E4,2.7759055E3,5.8599203E4,1.2425684E3,6.326908E2,2.0731223E3,7.571683E3,4.048086E3,1.970482E2,5.956258E3,6.3062286E1,4.65419E3,6.4809813E0,1.2233892E3,1.5745186E2,5.4311433E0,1.0103885E2,2.0266222E5,1.6825064E4,1.2005983E4,4.8389172E2,4.7258E3,2.377909E4,3.1177895E4,7.177325E2,2.0299686E3,7.459368E2,1.3851726E4,4.4747477E4,1.1081857E3,1.3438263E2,9.569827E1,5.369925E2,1.9453473E3,1.2777513E2,6.6816104E3,8.9007306E2,1.5004193E3,2.5476665E3,6.756311E1,1.2948509E2],"tree_param":{"num_deleted":"0","num_feature":"175","num_nodes":"63","size_leaf_vector":"1"}},{"base_weights":[-5.969062E-3,3.9148137E-1,-2.0488837E-1,6.0735714E-1,-2.0744434E-1,-2.9970264E-1,-1.2424069E-1,8.1397754E-1,-1.9558893E-1,-9.084479E-2,-3.28367E-1,-2.18608E-1,-4.0233046E-1,2.0256032E-1,-1.6887514E-1,8.5486645E-1,-3.9983034E-1,-4.719406E-2,-3.4493765E-1,-7.796066E-2,-7.9149045E-2,-3.9166728E-1,-6.7602426E-2,-2.2359839E-1,1.7837197E0,-2.837362E-1,-4.8668447E-1,-1.6809143E-1,3.3142674E-1,-3.0508113E-1,-1.1481108E-1,3.893338E-2,4.590217E-2,-2.4260623E-2,5.292588E-2,-1.5760331E-3,-9.8500036E-2,-1.845497E-2,3.0324984E-2,-3.5074223E-3,-8.154727E-2,-2.0376978E-2,3.7187234E-2,-5.0973147E-3,7.6175734E-2,-1.2086782E-2,1.0568219E-2,9.137357E-2,-6.186229E-2,2.6099035E-3,-2.2450997E-2,-2.5620436E-2,7.453417E-3,-9.916468E-3,9.137189E-2,2.4613861E-2,2.5106682E-3,-4.7338447E-3,-2.16339E-2,-2.3599616E-3,-1.0616772E-2],"categories":[],"categories_nodes":[],"categories_segments":[],"categories_sizes":[],"default_left":[0,0,0,0,0,0,0,0,0,0,0,0,0,0,0,0,0,0,0,0,0,0,0,0,0,0,0,0,0,0,0,0,0,0,0,0,0,0,0,0,0,0,0,0,0,0,0,0,0,0,0,0,0,0,0,0,0,0,0,0,0],"id":21,"left_children":[1,3,5,7,9,11,13,15,17,19,21,23,25,27,29,31,33,35,37,39,-1,41,43,45,47,49,51,53,55,57,59,-1,-1,-1,-1,-1,-1,-1,-1,-1,-1,-1,-1,-1,-1,-1,-1,-1,-1,-1,-1,-1,-1,-1,-1,-1,-1,-1,-1,-1,-1],"loss_changes":[3.0070922E4,1.640319E4,1.9382568E3,1.5471578E4,4.7390027E2,9.6956934E2,1.9980723E3,3.6814453E3,4.2299078E2,3.2888855E2,2.7233594E2,6.5074927E2,5.1431934E2,7.862952E2,8.874424E2,3.4470703E2,3.0156445E2,2.8849887E2,2.1890173E2,2.057507E2,0E0,2.3957642E2,1.7634502E2,5.1223584E2,2.366211E1,1.1869774E3,4.9151514E2,2.5664276E2,5.5247766E2,9.1930176E2,5.688717E2,0E0,0E0,0E0,0E0,0E0,0E0,0E0,0E0,0E0,0E0,0E0,0E0,0E0,0E0,0E0,0E0,0E0,0E0,0E0,0E0,0E0,0E0,0E0,0E0,0E0,0E0,0E0,0E0,0E0,0E0],"parents":[2147483647,0,0,1,1,2,2,3,3,4,4,5,5,6,6,7,7,8,8,9,9,10,10,11,11,12,12,13,13,14,14,15,15,16,16,17,17,18,18,19,19,21,21,22,22,23,23,24,24,25,25,26,26,27,27,28,28,29,29,30,30],"right_children":[2,4,6,8,10,12,14,16,18,20,22,24,26,28,30,32,34,36,38,40,-1,42,44,46,48,50,52,54,56,58,60,-1,-1,-1,-1,-1,-1,-1,-1,-1,-1,-1,-1,-1,-1,-1,-1,-1,-1,-1,-1,-1,-1,-1,-1,-1,-1,-1,-1,-1,-1],"split_conditions":[1E0,1E0,1E0,1E0,1E0,1E0,2.015E3,1E0,1E0,1E0,1E0,1E0,1E0,1E0,1E0,1E0,1E0,1E0,1E0,1E0,-7.9149045E-2,1E0,1E0,1E0,1E0,1E0,1E0,1E0,1E0,1E0,1E0,3.893338E-2,4.590217E-2,-2.4260623E-2,5.292588E-2,-1.5760331E-3,-9.8500036E-2,-1.845497E-2,3.0324984E-2,-3.5074223E-3,-8.154727E-2,-2.0376978E-2,3.7187234E-2,-5.0973147E-3,7.6175734E-2,-1.2086782E-2,1.0568219E-2,9.137357E-2,-6.186229E-2,2.6099035E-3,-2.2450997E-2,-2.5620436E-2,7.453417E-3,-9.916468E-3,9.137189E-2,2.4613861E-2,2.5106682E-3,-4.7338447E-3,-2.16339E-2,-2.3599616E-3,-1.0616772E-2],"split_indices":[167,149,147,148,174,174,0,150,174,134,166,146,149,152,152,174,24,69,84,61,0,52,8,114,163,148,28,29,174,149,174,0,0,0,0,0,0,0,0,0,0,0,0,0,0,0,0,0,0,0,0,0,0,0,0,0,0,0,0,0,0],"split_type":[0,0,0,0,0,0,0,0,0,0,0,0,0,0,0,0,0,0,0,0,0,0,0,0,0,0,0,0,0,0,0,0,0,0,0,0,0,0,0,0,0,0,0,0,0,0,0,0,0,0,0,0,0,0,0,0,0,0,0,0,0],"sum_hessian":[3.8035097E5,1.2686586E5,2.534851E5,9.325366E4,3.3612203E4,1.1650828E5,1.3697681E5,7.416812E4,1.908554E4,1.7112877E4,1.6499326E4,6.5083566E4,5.142471E4,1.6459729E4,1.2051709E5,7.175137E4,2.4167534E3,9.574E3,9.511539E3,1.696742E4,1.4545605E2,1.3276072E4,3.223254E3,6.492265E4,1.6091797E2,2.137613E4,3.0048582E4,4.246226E3,1.2213503E4,3.4242867E4,8.627423E4,3.2529863E4,3.92215E4,2.2837158E3,1.330377E2,9.497599E3,7.640151E1,9.276572E3,2.3496646E2,1.6883533E4,8.3886635E1,1.3093673E4,1.823992E2,3.156067E3,6.718698E1,6.232427E4,2.5983782E3,1.5901015E2,1.9078237E0,7.049308E3,1.4326822E4,2.8880207E4,1.1683768E3,4.1837314E3,6.2494766E1,7.7689893E3,4.444513E3,1.2927486E4,2.131538E4,5.0951777E4,3.5322445E4],"tree_param":{"num_deleted":"0","num_feature":"175","num_nodes":"61","size_leaf_vector":"1"}},{"base_weights":[-5.0043673E-3,3.7864336E-1,-1.9518071E-1,5.887599E-1,-1.9818003E-1,-2.867737E-1,1.47506E-1,7.9389626E-1,-1.9240092E-1,-2.6427042E-1,2.0226625E-1,-3.145545E-1,6.898159E-2,-1.1103665E-1,2.2003248E-1,8.3174145E-1,-2.7754787E-1,-5.2288406E-2,-3.345305E-1,-2.4755E-1,-1.0356236E0,-6.964245E-3,2.6768422E-1,-2.0024854E-1,-3.8095278E-1,1.1572704E-1,-1.9377923E-1,1.8796584E-2,-1.936618E-1,2.822514E-1,-3.9793044E-2,4.1780163E-2,-2.7867613E-2,-3.9317206E-2,-6.237137E-3,-1.6335207E-5,-3.9795533E-2,-3.413966E-2,-1.1808137E-2,-2.0715868E-2,-8.665538E-3,-1.4914147E-3,-6.134789E-2,5.276721E-3,-5.3627927E-2,-1.0695286E-1,1.3806449E-2,-7.154441E-3,-2.820586E-2,-2.0524232E-2,-1.4675048E-4,1.7103437E-2,1.8574904E-4,-1.9581955E-2,6.607858E-3,2.1319905E-2,-1.1007768E-2,-7.12649E-3,-2.8480781E-2,3.384288E-2,1.014224E-2,6.5414566E-3,-2.7221942E-2],"categories":[],"categories_nodes":[],"categories_segments":[],"categories_sizes":[],"default_left":[0,0,0,0,0,0,0,0,0,0,0,0,0,0,0,0,0,0,0,0,0,0,0,0,0,0,0,0,0,0,0,0,0,0,0,0,0,0,0,0,0,0,0,0,0,0,0,0,0,0,0,0,0,0,0,0,0,0,0,0,0,0,0],"id":22,"left_children":[1,3,5,7,9,11,13,15,17,19,21,23,25,27,29,31,33,35,37,39,41,43,45,47,49,51,53,55,57,59,61,-1,-1,-1,-1,-1,-1,-1,-1,-1,-1,-1,-1,-1,-1,-1,-1,-1,-1,-1,-1,-1,-1,-1,-1,-1,-1,-1,-1,-1,-1,-1,-1],"loss_changes":[2.7612143E4,1.5201807E4,7.9419424E3,1.4732578E4,8.8639233E2,1.9733027E3,1.0006963E3,2.9528398E3,3.8079022E2,3.7049475E2,6.494656E1,1.4055332E3,1.7766882E2,1.254227E2,6.737383E2,3.7775E2,1.9310051E2,3.7213098E2,3.250387E2,3.482926E2,1.1727496E2,1.3571176E2,7.4056915E1,1.4153076E3,1.3077891E3,3.11313E2,1.4094534E2,4.43026E2,1.3726294E2,1.0534441E3,6.934266E2,0E0,0E0,0E0,0E0,0E0,0E0,0E0,0E0,0E0,0E0,0E0,0E0,0E0,0E0,0E0,0E0,0E0,0E0,0E0,0E0,0E0,0E0,0E0,0E0,0E0,0E0,0E0,0E0,0E0,0E0,0E0,0E0],"parents":[2147483647,0,0,1,1,2,2,3,3,4,4,5,5,6,6,7,7,8,8,9,9,10,10,11,11,12,12,13,13,14,14,15,15,16,16,17,17,18,18,19,19,20,20,21,21,22,22,23,23,24,24,25,25,26,26,27,27,28,28,29,29,30,30],"right_children":[2,4,6,8,10,12,14,16,18,20,22,24,26,28,30,32,34,36,38,40,42,44,46,48,50,52,54,56,58,60,62,-1,-1,-1,-1,-1,-1,-1,-1,-1,-1,-1,-1,-1,-1,-1,-1,-1,-1,-1,-1,-1,-1,-1,-1,-1,-1,-1,-1,-1,-1,-1,-1],"split_conditions":[1E0,1E0,1E0,1E0,1E0,1E0,1E0,1E0,1E0,1E0,1E0,1E0,1E0,1E0,1E0,1E0,1E0,2.024E3,2.017E3,1E0,2.015E3,1E0,1E0,1E0,1E0,1E0,1E0,1E0,1E0,1E0,1E0,4.1780163E-2,-2.7867613E-2,-3.9317206E-2,-6.237137E-3,-1.6335207E-5,-3.9795533E-2,-3.413966E-2,-1.1808137E-2,-2.0715868E-2,-8.665538E-3,-1.4914147E-3,-6.134789E-2,5.276721E-3,-5.3627927E-2,-1.0695286E-1,1.3806449E-2,-7.154441E-3,-2.820586E-2,-2.0524232E-2,-1.4675048E-4,1.7103437E-2,1.8574904E-4,-1.9581955E-2,6.607858E-3,2.1319905E-2,-1.1007768E-2,-7.12649E-3,-2.8480781E-2,3.384288E-2,1.014224E-2,6.5414566E-3,-2.7221942E-2],"split_indices":[167,149,19,148,19,114,152,150,174,24,152,149,158,149,148,151,152,0,0,152,0,162,172,150,10,174,174,148,166,149,174,0,0,0,0,0,0,0,0,0,0,0,0,0,0,0,0,0,0,0,0,0,0,0,0,0,0,0,0,0,0,0,0],"split_type":[0,0,0,0,0,0,0,0,0,0,0,0,0,0,0,0,0,0,0,0,0,0,0,0,0,0,0,0,0,0,0,0,0,0,0,0,0,0,0,0,0,0,0,0,0,0,0,0,0,0,0,0,0,0,0,0,0,0,0,0,0,0,0],"sum_hessian":[3.7845016E5,1.2542534E5,2.5302481E5,9.193619E4,3.3489156E4,1.9966003E5,5.336478E4,7.28147E4,1.9121482E4,2.8745316E4,4.7438394E3,1.851981E5,1.4461934E4,1.1690372E4,4.167441E4,7.033073E4,2.483976E3,9.629757E3,9.491725E3,2.8136725E4,6.0859125E2,1.1301387E3,3.6137007E3,6.805099E4,1.171471E5,1.2278188E4,2.1837444E3,4.54669E3,7.1436816E3,3.3622855E4,8.051556E3,7.013614E4,1.9458421E2,5.727478E2,1.9112281E3,9.001747E3,6.280099E2,2.089189E3,7.402536E3,8.665774E3,1.947095E4,9.745435E1,5.111369E2,1.0230342E3,1.0710448E2,1.1753188E1,3.6019475E3,5.8813445E4,9.237548E3,1.0865831E5,8.488791E3,4.064016E3,8.214173E3,1.3587269E3,8.250175E2,1.6800668E3,2.8666233E3,6.289633E3,8.540489E2,5.631239E3,2.7991615E4,6.0176963E3,2.0338596E3],"tree_param":{"num_deleted":"0","num_feature":"175","num_nodes":"63","size_leaf_vector":"1"}},{"base_weights":[4.120647E-3,3.6455107E-1,-1.7208584E-1,5.7184404E-1,-2.004325E-1,-2.6149356E-1,1.605152E-1,7.713079E-1,-1.7683543E-1,-7.6957844E-2,-3.2961997E-1,-2.8904974E-1,8.667639E-2,-6.865639E-2,2.2524515E-1,8.092818E-1,-3.0479273E-1,-2.1953951E-1,4.0642354E-1,-6.498661E-2,-7.653313E-2,-4.0459076E-1,-3.196623E-2,-1.7054074E-1,-3.586588E-1,-1.9930468E-1,1.7990924E-1,2.799611E-1,-1.06024474E-1,3.0422348E-1,-4.789646E-3,3.6365096E-2,4.3874566E-2,-2.091333E-2,1.5947174E-2,-8.780898E-3,-3.864836E-2,7.3219783E-4,2.8287828E-2,7.258943E-3,-6.5713027E-3,-2.1635778E-2,2.8111259E-2,-3.8437576E-3,7.854546E-2,3.3779547E-4,-1.3798538E-2,-1.9285202E-2,4.378881E-3,-1.8468197E-2,8.362068E-3,1.0422964E-2,-2.5771191E-2,3.0927274E-2,-2.2916092E-2,-1.7343814E-3,-1.8248541E-2,2.4074452E-2,1.1179454E-2,5.5153845E-3,-2.4704425E-2],"categories":[],"categories_nodes":[],"categories_segments":[],"categories_sizes":[],"default_left":[0,0,0,0,0,0,0,0,0,0,0,0,0,0,0,0,0,0,0,0,0,0,0,0,0,0,0,0,0,0,0,0,0,0,0,0,0,0,0,0,0,0,0,0,0,0,0,0,0,0,0,0,0,0,0,0,0,0,0,0,0],"id":23,"left_children":[1,3,5,7,9,11,13,15,17,19,21,23,25,27,29,31,33,35,37,39,-1,41,43,45,47,49,51,53,55,57,59,-1,-1,-1,-1,-1,-1,-1,-1,-1,-1,-1,-1,-1,-1,-1,-1,-1,-1,-1,-1,-1,-1,-1,-1,-1,-1,-1,-1,-1,-1],"loss_changes":[2.3970227E4,1.4514227E4,7.538254E3,1.3539385E4,5.306022E2,1.9168545E3,7.967147E2,2.9257227E3,4.75177E2,2.959199E2,3.6275146E2,1.5271875E3,3.9074158E2,1.5413225E2,7.608374E2,3.8603906E2,1.728983E2,4.318907E2,8.1242645E1,2.356095E2,0E0,3.5333765E2,2.3563551E2,1.2805771E3,1.4075928E3,2.2466405E2,2.1949728E2,2.8662448E2,1.9736191E2,4.4549878E2,6.028917E2,0E0,0E0,0E0,0E0,0E0,0E0,0E0,0E0,0E0,0E0,0E0,0E0,0E0,0E0,0E0,0E0,0E0,0E0,0E0,0E0,0E0,0E0,0E0,0E0,0E0,0E0,0E0,0E0,0E0,0E0],"parents":[2147483647,0,0,1,1,2,2,3,3,4,4,5,5,6,6,7,7,8,8,9,9,10,10,11,11,12,12,13,13,14,14,15,15,16,16,17,17,18,18,19,19,21,21,22,22,23,23,24,24,25,25,26,26,27,27,28,28,29,29,30,30],"right_children":[2,4,6,8,10,12,14,16,18,20,22,24,26,28,30,32,34,36,38,40,-1,42,44,46,48,50,52,54,56,58,60,-1,-1,-1,-1,-1,-1,-1,-1,-1,-1,-1,-1,-1,-1,-1,-1,-1,-1,-1,-1,-1,-1,-1,-1,-1,-1,-1,-1,-1,-1],"split_conditions":[1E0,1E0,1E0,1E0,1E0,1E0,1E0,1E0,1E0,1E0,1E0,1E0,1E0,2E0,1E0,1E0,2.023E3,1E0,5E0,2.017E3,-7.653313E-2,1E0,1E0,1E0,1E0,1E1,1E0,2.02E3,1E0,2.017E3,1E0,3.6365096E-2,4.3874566E-2,-2.091333E-2,1.5947174E-2,-8.780898E-3,-3.864836E-2,7.3219783E-4,2.8287828E-2,7.258943E-3,-6.5713027E-3,-2.1635778E-2,2.8111259E-2,-3.8437576E-3,7.854546E-2,3.3779547E-4,-1.3798538E-2,-1.9285202E-2,4.378881E-3,-1.8468197E-2,8.362068E-3,1.0422964E-2,-2.5771191E-2,3.0927274E-2,-2.2916092E-2,-1.7343814E-3,-1.8248541E-2,2.4074452E-2,1.1179454E-2,5.5153845E-3,-2.4704425E-2],"split_indices":[167,149,19,148,174,114,152,150,114,134,166,149,152,1,174,174,0,162,1,0,0,58,60,148,90,1,150,0,158,0,148,0,0,0,0,0,0,0,0,0,0,0,0,0,0,0,0,0,0,0,0,0,0,0,0,0,0,0,0,0,0],"split_type":[0,0,0,0,0,0,0,0,0,0,0,0,0,0,0,0,0,0,0,0,0,0,0,0,0,0,0,0,0,0,0,0,0,0,0,0,0,0,0,0,0,0,0,0,0,0,0,0,0,0,0,0,0,0,0,0,0,0,0,0,0],"sum_hessian":[3.774214E5,1.23927195E5,2.534942E5,9.066289E4,3.3264305E4,1.9978852E5,5.3705684E4,7.1589836E4,1.9073059E4,1.7009031E4,1.6255274E4,1.8513595E5,1.465257E4,1.1828322E4,4.187736E4,6.914988E4,2.4399475E3,1.777245E4,1.3006096E3,1.6871143E4,1.3788881E2,1.2984481E4,3.2707927E3,6.850684E4,1.166291E5,3.602175E3,1.10503955E4,1.1444965E3,1.0683826E4,3.1174004E4,1.0703357E4,3.1410148E4,3.773974E4,2.0646611E3,3.7528638E2,1.6466906E4,1.3055422E3,3.7633694E2,9.242727E2,4.0520996E3,1.2819043E4,1.2617976E4,3.6650595E2,3.1825762E3,8.82165E1,2.5546857E4,4.295999E4,1.0996457E5,6.6645337E3,2.4605798E3,1.1415951E3,1.0615239E4,4.3515613E2,7.8475964E2,3.597369E2,8.377148E3,2.3066775E3,9.745235E3,2.1428768E4,8.665705E3,2.0376517E3],"tree_param":{"num_deleted":"0","num_feature":"175","num_nodes":"61","size_leaf_vector":"1"}},{"base_weights":[2.5230958E-3,2.2843416E-1,-2.0656575E-1,5.4439646E-1,-2.119793E-1,-2.9178122E-1,1.2390377E-1,7.021393E-1,-4.9692184E-1,-2.403472E-1,2.3401828E-1,-3.1990233E-1,6.715048E-2,4.081721E-1,7.307191E-2,7.0953304E-1,-1.4120809E0,-5.191229E-1,7.586916E-1,-3.448142E-1,-1.2755357E-1,2.6440918E-1,-8.435964E-2,-3.531204E-1,5.0203934E-2,1.8130223E-1,-7.6439476E-1,-1.0766364E-1,6.5874743E-1,1.4563535E-1,-9.383673E-2,3.272223E-2,4.4859618E-2,-8.0265544E-2,5.595547E-2,-2.644527E-2,5.162545E-2,-7.977654E-2,5.7677068E-2,-1.2383248E-2,-2.266942E-2,-7.7870525E-3,1.2412076E-2,1.4379123E-2,-8.25848E-2,-2.361568E-2,-1.316216E-2,1.05727855E-2,-3.8627538E-4,2.0699315E-2,-9.882148E-3,